solver_type L1R_LR
nr_class 6
label 0 1 2 3 4 5
nr_feature 34999
bias 0.000000000000000
w
10.32398563517535 -2.481856734132538 -1.048017479640467 -2.726754724069445 -10.75472615182371 -2.267764820281665 
0 0 0 -2.067442116721693 0 -0.2830484995661617 
10.53099617487710 -4.874790919414283 0 0 -0.3428149512735262 -0.1967547895901358 
0 0.9461266740322583 0 -1.498089626319979 0 0 
0.01935430896218471 0 0 0 0 -12.06924969471246 
0 -0.7422057777050357 0.2258611599308867 -1.008591264896645 -0.4086050350698058 1.357538353319659 
0 -0.1188808561268201 -1.506577332635273 -2.480161430996730 -3.113181973801403 1.791666736829014 
0.1877457161038825 -0.4344113479044560 0 0 -2.146881118267399 -0.6532328882185423 
0 1.574264096002160 -7.334799090601298 -0.5111263881768160 -5.969796269522381 -6.861148959173579 
0 0 0 -0.02264506849940079 0 -1.399489331519607 
0 0 0 0 0 -4.422274603480652 
0 0 0 0 0 0 
0.1590153131734667 -2.012991621060585 0 -7.661596380073246 0 -1.266796734873673 
0 -1.345447298676309 -2.264835951621687 0 -0.2194541834141340 -1.339283817480605 
0 0 0 0 0 0 
0 -0.9625780925794098 0 0 0 -2.214597756868383 
0.5297557294547104 0 0 0 0 0 
3.976901621608415 0 0 0 0 0 
0.5864849202599366 0 1.595812786639419 -0.5507875856810841 0 2.244418520573577 
0 0 0 0 0 0 
0 -1.000596300652892 -0.3513329488329611 0 0 0.06278176842121908 
0 0.4778856608944330 0.9046182646195808 0 0 2.181774284965618 
0 -2.763958482246681 0.4731492603249223 -3.558975811283591 0 -0.7635177829311849 
11.74198275713564 -2.163688016730781 -0.1822119390714668 -0.5829325046363961 -4.847100485256688 -0.6868148340463491 
0 -3.661405303097387 4.178622063948501 0 0 7.799105189300108 
-4.383710041970051 5.380022412282993 -3.437586277480972 -6.228314513264860 -8.776492369747118 -2.851114738678080 
0 0.007537296566563284 0 0 0 0 
0 -0.2089875232375352 -0.8045617445596185 0.6915382763220793 0 0.1835084634872178 
0 -2.695528378475951 -0.6582878886408123 1.829219600072600 0 -1.229964161302772 
0 -1.397650721524266 0 2.079371972993270 0 6.938466864832369 
0 -0.5581114149666598 2.975664658157549 0.2159120680674088 0 0 
0 -0.7117429810891862 0 0 0 -5.051478716093624 
0 0 0 0 0 0 
-0.6303040913387931 3.170645147454356 -1.496832329139026 -2.965973041687565 -3.058462689074814 -4.436380577179699 
0 -0.09282345694822337 3.351563225800570 -7.003899029651493 -0.8546302086287664 0.4807247117218248 
0 0 -10.95396417903514 0 -1.398246126850059 0 
0 -2.926531221487395 -0.2457518738035234 -1.847246301847113 0 0.7947330900697341 
0 2.422996225097394 1.565327061692235 -0.9309536639739284 0 5.208378823726125 
0 -5.196208242485366 0 0 -1.639139877756495 0 
0 -3.668430524337288 -7.105048935062769 0 -1.376416253186179 -1.259940349651391 
0 0 0 0 0 0 
-1.009355354305485 -9.484397643492013 0.2753087009049876 0.3407477557779349 0 -1.894704266732389 
0 0.4374241107078621 -3.836732533444555 2.049251708977101 0 0 
0 -0.3618552996286459 1.752455393502066 -3.183295917386811 0 0.6852593695729721 
6.234117146551608 0.6818488489662258 -2.243109416559090 0 0 -3.068100730976117 
5.958334410526494 -1.732364784866433 2.745877285282872 -4.323912505306946 0 4.874860617988273 
0 -6.539453574666732 -1.419825956275755 -0.3775668108859529 0 -7.346947098890949 
-9.945124732047250 5.534463003256763 -6.898773381213260 -7.383032825037506 -11.32638497425916 -6.527159973784174 
0 -1.673925797276692 -1.109584827583285 0.6483821291828351 0 -1.908499090679812 
0 -10.22875258277876 8.201754957320340 0.2214037472161356 0 -1.986253424175376 
0 -3.358919270612863 5.669765202851086 -7.691951977360395 0 0.4408984736810920 
0 0.4654320621198036 -1.991704035941196 0 0 -0.9651962805607714 
0 -2.458149020863544 -1.848270973235384 2.331149151738526 -2.577862202592357 -0.2265410211552241 
1.711598589287841 -1.738400875605638 -4.281810642917330 -2.853088132620711 -12.01815396557014 -2.934543221927522 
10.17917478308987 -0.6291506617569206 -2.502723258132755 -1.956583208236874 -10.60836409278460 -10.24758198071833 
4.513875089986810 0.3975631349549673 -2.988471097231311 0 0 -0.08826669856593651 
0 -6.890314933238090 0 -6.595734557135248 0 0 
0 1.442271631230644 -0.04930123916679548 -1.259445434201469 0 5.090158756316860 
0 -1.249256925746390 3.972376282075044 4.011989578963532 0 0 
7.177702188446006 -2.002149984982790 -0.1312786038759497 0.8030767986681879 0 3.160339702023204 
-10.43065083316124 6.844886001426128 -7.725749683619184 -7.878872736327327 -10.82319178950276 -7.729275602877635 
0 -0.2891297121131362 -0.6005962983653268 0.6693009535207513 0 0.1196363922367545 
5.262736012433900 -4.067233844311430 -6.421674403877809 2.535726135901169 -0.7368272063840164 -4.577580182257402 
0 -3.060422554785133 -2.742008439432337 0 -2.160944083965018 0 
-0.7222134245608935 0.7021712990582855 -0.9437704789104927 -4.001063945429698 -3.983078727265218 -7.684109368703694 
0 -0.9031563628462654 -0.8711144439050897 -6.251711429316012 -3.424802223626812 -3.188939222536476 
-9.778326081401952 5.937807794041566 -6.802296182376784 -7.243436737019715 -12.80720745482300 -7.591669954906076 
6.599877033271617 -2.274526720550908 5.446982962391076 -6.948526303877098 -0.4401825917689788 0.1547919447842260 
6.802074896618987 -1.266359405332967 -3.056356892898776 -1.856236158654531 0 0.04943299614898095 
0 -2.004411841186602 0.6143968980832515 2.201388933896351 0 -1.294783608666378 
-0.7650375326637999 0.8543139581638427 -7.165978499705151 -3.217785291668130 -8.598968913720272 -2.438134380112404 
5.134301484110151 -3.975993118891843 2.142132616496990 -2.320779740667595 0 0 
0 -0.7458754493302863 3.434853164094468 -12.33391884349461 -1.485121700234918 5.572746743903354 
-9.247255693292052 8.387674085770461 -4.873968758563509 -4.320458057957161 -3.956902056406290 -14.46207605163545 
0 -1.405011646605158 0 0 0 -1.448539207550370 
5.966056892185837 -2.219434115107852 -2.266783305451506 -1.264055073280483 -17.13667370925138 -8.058238126940710 
0 -0.1274458372988661 -2.441431565434446 -2.314971307911371 0 2.957121352420240 
0 -0.7375067261220924 5.119523301066352 0.4511082195231815 0 0.9671364944985897 
-4.252442393525505 0.6059881712215096 1.348047229370604 -0.8810731015599524 -3.598550966992080 -1.780755604570466 
1.070011775439470 -8.495947082934519 -4.704461222280898 0 0 -3.838300530183921 
1.356851775684921 0.1785984451112089 -4.823525270343589 -1.880750256146047 -6.796398973324463 -3.489320588840641 
0 -2.375373575556734 1.585938548867908 -0.8716904919692685 0 0 
0 2.256588549418307 -1.479177950010386 -1.456156223829013 0 0.9864199813105798 
0 -0.4732225777377750 0 -0.2342144153811189 0 0 
14.00382397493373 -0.4765203530048877 -3.902986043841583 0.01416798181169480 0 0 
9.823797352088890 -3.471991785283974 -0.2717544164863233 -1.555845738783455 -6.081767226522596 0 
0 -1.408100944608055 0 -9.612605014487231 0 0 
3.526079045652225 0 1.569046580570580 -2.197160540016395 0 -2.551881419537854 
7.479775043848911 0.04036584431782661 -2.865861998727238 -1.218154801867968 0 -2.229211048922124 
0 0.3150843834811485 -3.985716851765145 -0.04594893151126816 -6.319164633549862 -2.159585387215904 
0 -0.3523525468568478 -0.2424891819537895 2.720736150069494 0 1.593856773914736 
0.3450429913177604 -0.6298594171200987 -2.603667619822339 -1.944546912688879 -0.3431422486828618 -3.342484621719819 
1.089303923247088 -1.501093052506404 0 1.498173455204268 0 -0.3974831553830058 
2.707721721096557 1.835031305338350 -1.208282257102612 2.807271989303456 0 0.8261521494420316 
0 -10.49753797562805 -1.971517841864180 3.735142162957979 0 -0.07746089511590310 
1.538310433312162 -3.545545751458652 -0.6104125410433312 -6.001464691712112 0 -6.211793232034331 
0 0 -1.186176386678637 -1.778775834283321 -7.198949214487771 -5.357099574323917 
0 -0.2961711348032167 -0.8371335739725240 4.014856987838543 0 0.2209995849099000 
0 -1.796401625551431 -2.018870688242803 -0.2138906619054278 0 0 
1.261669305046823 -2.786723523008037 1.655487791840310 0.07260744936589486 0 -5.005646037813981 
6.470385649511452 -5.972724309333221 -2.494781162785804 -7.445386712700291 -9.020074382126273 -6.165862657850259 
0 -0.6213820835435316 0 -3.288610028227089 0 0 
6.512964712367717 -0.8694675366983251 -0.02438961761354252 0.3687119098680051 -0.02185202176730761 1.758855604482078 
0 -0.3714128501945261 -12.23351445787429 -2.569648857271202 0 -2.558208905667584 
-5.127084505716245 3.628412319973572 -3.328482715806071 -2.012134221826112 -12.72094413648220 -6.986066520590200 
0.1742372191625411 0.09893018202499010 -4.054606737884872 5.061701558733784 0 -0.2931466733980292 
5.938996626102861 -1.919643906708363 0 -5.814967286598745 -2.621838848389688 1.247622709967452 
-7.951948084900949 0.5585569609764947 -3.405410407571195 -1.499689767744799 3.576926178948138 -2.879324226301473 
0 0 -0.5640445938858172 0.9594608344435588 -0.6609772530298436 0.3293336526205437 
9.271607830134640 -8.200441030045265 -3.719049055936163 -7.744039195498650 -3.747239186817003 -2.406644844823507 
6.965307186621190 -1.787913357587486 0 0.9546913898315026 0 -3.909313456351693 
0 0 -0.04269178202526695 -0.6651744982873474 0 2.305030889169059 
0 -0.4116368343429228 0.8655613603888079 -1.932980534675291 -2.251979946175912 -1.765048669601103 
0 -0.02498026930259342 1.898728296434171 -2.363315207504059 -1.401864988550861 -0.3547317965503147 
0.3837297473218249 -0.8052050265582912 0.5359572934340076 -0.1724038471843476 0 -6.359772561312587 
0 -5.842621954355559 0 0 0 -2.267918574729309 
0 -2.446883386383620 -4.404031084871370 0.1352514739739390 0 0 
7.564625260520458 -3.246972164454709 -2.725089951623817 0 0 0 
-4.420394327520049 4.629370843149527 -5.975093412634415 -4.195577581108486 -0.6702426841675508 -4.257162494804518 
0 -1.718159205279398 -0.3378918001946604 -3.671878532310348 0 0 
9.908882881238190 -5.452714420127142 -3.856585288780826 -6.992808544520873 -8.181442050253570 -6.366539616799861 
7.267483369582036 -5.563269789718048 0 -3.256324779760936 0 -3.584624202686431 
4.487781302738752 -1.216768795678558 -1.499096717153937 -0.9969484798886883 -2.105422755988815 -1.202845042267258 
0 -0.6273040806740500 -4.766775561207663 -1.738723495831462 0 0.007856934952814754 
0 -2.364284523673427 -4.677432702843481 -2.749629148982282 -1.585695171749466 -1.025264122914842 
0 -1.886044799137691 0 -0.3939116820428484 -7.011884442089098 -5.852722358973862 
0 -1.005701474670718 0 -4.853735713748973 -1.842085113098475 -0.7510586709888780 
0 1.243783912812690 0 -1.559434367422974 -0.3109468982889633 -0.8241392568028750 
0 -0.9966619344248054 -0.5916919573764386 0.2409325060529569 0 0 
0 -0.7771547027165193 -3.641785336748179 0.2923815168041728 0 -0.2752075635705406 
0 -1.125069603023237 0.7159190481674643 0.03895871875080986 -6.173385899456535 -4.191653719811859 
0 1.387804114497775 0.1832727517944319 0 -3.940437675748037 -0.1777635707531780 
15.63915566188042 -2.817249201077553 -1.609241013494174 0 -1.696904831912613 -1.544355446116321 
0 -0.9000486762939638 1.259473942391398 0.06136710121217542 0 5.702092543972011 
0 -5.858798372612425 -6.436987596798608 -9.712823920482357 0 -8.435560743927300 
-1.035222394282429 4.477613620552316 -3.769550728521494 -3.609152171920738 -4.625613952647917 -1.076488555224404 
0 0 1.747066887501283 1.461548483421262 0 1.722192599167203 
0 -0.1514252742955276 0.6576052379702650 0.2045276646445862 -2.716442628724115 -0.03411641734106327 
0 3.108299480700056 -3.429388560280819 0 -2.893431177058048 0 
0 -10.05096616405012 -3.296940819308153 4.627934303489605 0 -4.881572991415007 
0 -0.3450734038429112 -0.7530136234957144 -0.1230663043540818 -8.575537026189627 -1.465608826783619 
4.763008755337721 -0.9749383832139310 0 0 0 1.361471712870193 
0 -0.2003366291267941 0 -3.749103158049643 -0.02964917534639196 1.514648206464834 
0 -2.951258049807893 1.470885139992297 -2.104634603575765 0 -4.543975400520076 
0 -0.1530631460253947 0.8136506782353871 2.221826200520316 -1.084668953999312 -0.3195667317472271 
6.712288486439438 -7.638336484461930 -2.344410543266107 -0.6569240378904599 0 -0.5406928293992015 
-7.995691885938453 5.305596341682488 -7.271840326420374 -6.728260931238958 -9.209318013605628 -7.666742602196628 
0 1.798372585533115 -0.2394590426810329 -2.018751328885021 0 0.2778089085933365 
5.451726948469817 -2.445223429643186 -3.352135550649328 -3.130713634355940 -0.7770875451564796 -6.118305186235194 
-11.03937061633472 1.202305697417238 -2.423787114001494 -4.926949292897043 -12.73149759532888 -2.653522981051576 
0 -0.8764386031773801 -2.532733279915411 0 0 -0.6404348840263678 
3.114159599778970 -6.354688782184788 -4.970084684315332 -4.316053406447058 -0.06018506008237928 -0.7406606835738869 
-2.530152547716114 5.458107591984587 -0.1708582547398930 -4.834903236960303 -9.503036346824304 -12.02596660637069 
0 -2.199227949414210 2.962963688160608 1.148247209027984 0 4.311509912521204 
0 -1.033140426314944 0 2.029867675506551 -1.029823206541924 -0.1552331015458056 
7.400894152048393 -1.647808949670577 -4.095067765355928 -0.6762896365327336 0 -0.7187451098408726 
3.988625799421644 -6.505086640898031 4.258742893261499 -7.300678645766737 0 1.065745158163029 
7.610729607586980 -1.783356782960476 -1.835079575366133 -1.578224794902234 0 0.1835205812591660 
0 0 -0.4655583993780819 -8.841090694525045 -0.5749484147891881 -4.441767941257741 
1.318648881261483 1.563172588825486 -2.677148667904645 2.077176718518975 0 1.051467498828760 
0 -0.1190476056297521 0 10.14430718778116 0 -2.389909459830289 
-6.884241990477488 1.422515104542448 -2.519197058927582 1.908763213107460 -9.365658161361427 -12.27390610333275 
-5.944047078358756 2.689524461459904 -4.103348318068603 -6.361030042493022 -7.947259584735783 -5.389619279618255 
0 4.361388075979881 -2.327742519279720 -3.046357481155752 -6.068385007661707 -3.988530425478963 
0 0 0.04469054607873547 -0.3835039378688546 0 -0.7687305840964080 
0 -6.062026135407551 0.3404114336446440 0.03633429812793579 0 0 
-1.272015249557833 -1.362798198636342 0.1432081340933030 2.869015605238058 -1.358644629953535 2.920256519519473 
0 0.5060319280143606 -0.1500452396897368 -1.476514773522777 -7.888440708762870 -0.06011087376262875 
0 0 -8.233740131837530 -0.5584346684502001 -1.764735465143549 -1.399896921652937 
0 -3.035134391153314 1.592378835045040 0.4533973139009440 0 2.196425954469013 
0 -1.237278190083969 -2.927048352104110 5.151683851255085 0 -1.141518246173618 
0 1.576541419458584 -2.620203094519189 0.6965589987147306 0 -1.938095222175134 
0 0.9549383509768936 -0.2541049179972196 1.656044075717035 -1.090555672537178 -0.5758338218324840 
1.688978761498058 -1.589373456897582 0.6392474280556382 0 -1.118901988606570 -0.3537356657555557 
0 -2.113253791381537 -0.04119490618811969 -4.543597882197396 -1.517576624933516 -4.865060144200777 
-4.979563900631243 3.570289165787890 -6.217064392837293 -2.325256684125030 0 -4.528874449951688 
6.140855209502160 -5.001924246208523 0 -5.681296731823645 0 3.190950317711431 
-6.331970977997742 6.238267093054390 -5.784539419080168 -4.170774643467336 -9.309208185865065 -6.538846285533182 
-5.618799799432296 1.258720331845917 -10.52949773744678 -2.889478129572976 -8.401030793588180 -5.218564222506043 
13.27998970852304 -6.072214929727194 -0.9868477048985351 0 0 0 
0 -4.311615202521002 0.3897495861289919 0 0 0 
4.939767510953621 -1.211325132738429 -1.340709812642317 1.688975231253904 -9.453564294783536 0.1589195839091653 
3.236836421463557 -1.048416629101137 -9.831144223811355 -1.150460452979808 0 -1.389395862969185 
-1.563603267840432 6.143688918842101 -6.127889358237019 -6.435377773933230 -5.289818712204426 -8.863613473181266 
7.179998761071298 -7.115850961374093 -0.9535261732194571 -0.01881092505644944 0 -0.3295268714030060 
0 -4.089747756486093 1.266438511778130 -2.916502972387894 -5.770519613845327 -5.202789388892442 
0 1.578533755760122 3.648753508662003 -9.074955488248257 -5.041638775648084 -2.775851796586768 
0 -4.345439561742395 -1.868125145750851 0.4391826262055918 0 -4.245612693198197 
0 -3.067527020993065 -3.121576629460633 -2.884270870296154 0 -5.801480460610307 
-11.90886646319830 4.467491299587019 -1.849860237320692 -5.013114416194102 -4.273114916048909 -6.467858843863692 
-1.105344847851372 5.730414322450684 -6.407416112018979 -6.444990760696355 -4.257064038629827 -4.407191682710813 
3.992031464174247 -2.623161447528196 -1.462820876044829 0 -4.436112617471158 -0.8148826496999720 
0 -0.3823940373221463 -1.935227346198289 1.019347786522003 -0.4037473367156152 0 
11.12342159799265 -8.236505776145272 -1.615039871655823 0 -1.270901094873867 0 
0 2.904205297580090 1.229621095998391 0.6293537755140521 0 -2.877938850190808 
0 -1.010150966912150 -6.438610935328675 -3.610547598003747 -2.718438379892599 0 
0 -1.633549082930347 0.4674545885425421 -1.735969490790484 -1.183975058477503 -0.9462277771833791 
0 0.7431361541852852 2.157707914188270 -2.312856527165252 0 0 
0 0.1637663531487426 -4.938565596262287 0.4511573164354964 -5.246682749079953 1.146743755320057 
0 0.9324494194567567 -1.241790776135282 -7.138104612560476 -7.666780364062701 0.3090425509636938 
14.55044057482920 -3.996079656903750 -3.179203109208370 -0.5111141271106158 -0.4586529493819362 -5.681144952970639 
0 -9.577465212795506 -3.093614928459869 -4.482357999502335 -1.592792824515752 2.584663167959497 
0 -1.999129538701499 4.472176153559055 -2.168209153036409 0 0.1298761210020555 
0 0.4281792357195496 0 0.9326255707450721 0 0 
0 -0.2070744343875487 -2.885842074650010 0 0 0.6453706537072790 
-10.57903100574170 6.572383833193992 -7.540659674160505 -7.656888047533264 -11.37979640365506 -7.373059331625072 
0 0 -2.145683772578737 0.5896784279726528 0 -4.870141680194504 
0 -8.743995404701483 0 -2.636551730024896 0 -0.4747294446930660 
0 -4.525757005562335 0 -2.077298549556432 0 0 
0 3.892362495075690 -1.417417888107559 -1.526258685183545 -1.476747515438520 -4.300667790337273 
4.943057369461009 -2.753913261406183 -6.820827774268605 0 0 0 
6.149433723122209 -2.701499938367797 0 4.262720123497261 0 -1.558267813046372 
0.1163882221399836 -2.657106576823868 1.377288408270323 -1.670929248233608 0 0.1483525168193366 
0 0.2627708214266281 0.7070036214026315 0.7527334203512095 0 -0.8658355506407813 
0 0.3744245170858532 0.7399090879269830 -2.173423017254144 0 -0.5298723166724731 
0 1.505259113882043 -6.451453474054091 0.2529383069200482 -5.665325887890407 -4.806335422974253 
0 -5.399836140492229 7.880783153827604 0 0 2.638206152922878 
0 2.598136935849850 -1.504008160025163 -5.449235334495645 -3.657127158151774 -4.805351609437023 
-4.181747417301008 1.984115905171795 -3.358653929572968 -3.886034394162091 -6.364972673960509 -3.975951099843324 
0 -1.247407398321614 0.3507345458949197 -1.520167131757359 0 -5.090148168433015 
-6.211001047959656 0.9945004078357397 -3.656121037714539 -3.110040728480007 -6.857775654924528 -4.610865915947169 
0 -3.102847403479226 -0.2362209549918239 0 4.900725028802556 -1.055675468114543 
0 -1.773815125050352 -1.753687333948106 4.832092451975051 -1.164765450407879 -1.262335813466282 
0 -1.271709739836898 -2.397266652254004 2.003593921171681 -6.033856960177811 -0.7076067611097743 
0 -1.215552690196758 -0.8708625024446338 1.470954904673135 0 2.190516843435108 
3.965652021795818 -2.330376731731825 -0.7724040572130420 2.550917985119400 0 -2.362967118221918 
-6.459294766696935 -0.7893748527677931 1.461885236057725 -4.490447273916770 -7.298715102111930 -2.960211640517125 
0 -1.479369093388378 -5.152194863565072 1.730703211734139 0 1.078492024614220 
0 -1.358140396463850 0.2749810030717280 -0.8284825078072560 0 1.842229872299932 
0 -0.1420019730223982 -0.04353094579296243 -0.07541540953374501 0 0.7064576036261776 
0 0 1.704128134807246 -0.8014867456235121 0 1.217273661821077 
0 0.5406827080998037 -2.366026611453157 -6.179639278898230 -2.885742711638895 -1.540679739304254 
0 -0.4849792906002755 -4.361006692320927 -6.104986355261934 0 2.789492623663199 
14.24893828483195 -0.8714516489068443 -1.799390017490980 -4.853415053965814 0 0 
0 -10.25927004080684 4.626066670972524 -0.9164291341201709 0 -0.2270889322642635 
0 -1.030224995005939 0 -1.813974595001260 -0.1631234215133324 0.7470164879981220 
0 -0.1598260422511482 0.006576948626451085 -1.797942403262391 0 2.794296228817886 
0 -0.4615988688298015 2.634612495834714 -5.941879416702672 0 3.563679869306443 
0 1.117970520928952 1.002645131976846 2.892248752842728 0 0.8469170951315985 
-1.195345516224337 2.139152615406838 -2.911415781088606 -3.209928689289055 -5.715740964441968 -2.268472258378162 
0 -0.6990327882131433 -0.06016066328512090 0.8349123956309482 0 -6.152337800430738 
0 -3.513660051035605 0 1.303502791422214 0 0 
0 -2.197846770556040 -1.951762415732891 -0.05999707317040159 -2.322469439465758 0.6957292526977331 
0 -2.320096350925588 0 -4.482583262598701 0 0 
0 -0.9259146829902254 8.662690200465622 -0.6218222498468338 0 -0.6262732830198231 
0 -8.596481285245066 0.4001672387122086 -0.5928808498208574 -8.862745552327796 -0.4950134531580295 
0 1.708855463005326 -1.561128163734042 -4.242456241201905 0 4.265875349326945 
0 0.8024572921392741 -3.263801632255394 -0.02224561861040558 0 0 
0 0 2.231380826839382 -2.904431252271518 -1.113460001270869 3.005281358404091 
11.19080803095643 -0.8040806018091564 0 0.8150346428049001 -2.494308858849397 -0.7393014620239579 
0 -0.6154591692241990 0 0 0 0 
0 -5.394329453568648 -7.194915362804943 4.304432294135021 0 -15.33237360999482 
0 0.9759714077503810 0.4740251069616134 -2.946620724955714 -0.6460391632310964 -0.1866224743652042 
0 -1.966648390437316 -1.268717375953210 -1.579982564830755 0 0.9381721216516684 
0.5287245255872248 -5.564949441579774 0 0 -1.613580362349036 -0.8546884308390198 
6.563604330050906 0 0 -7.327903325393390 -3.093770744794204 0 
0 -1.049380913014162 0 -1.113444144694171 0 -1.608413505868591 
0 0 -7.324789593705747 -1.498343572963234 -0.5868280778161377 -3.566819113391535 
5.445050736318456 -3.368100196360667 0 0.6460867355092865 0 0 
0 -0.5110834421071828 0 0.2399867335759622 0 0.2420213215731401 
8.915299221070743 -2.110580099399218 0 -0.5709987349726810 0 0.4612320237132823 
0 -1.138144876514793 3.019419753005372 -4.984432509638102 0 0.5088665457178405 
0 -5.448350284217219 -11.10481322940204 0 0 -12.39506844314231 
0 5.016944804634044 -2.601419049361464 -3.201837378047816 -8.016796298984023 -0.8605975951321180 
0 -5.485559725120957 -0.2676977772610437 0 0 0 
0 -3.885669459371892 0.7774586692203358 2.434733312284692 0 7.211239460696647 
6.563549460676956 -1.690293734060975 -0.8250378748896219 -1.944759044221898 -1.435305112425265 -0.9450910468645850 
0 0 0 -2.757398317646273 0 4.168719877120457 
-6.058377462095889 3.427574883368053 -4.219525913521200 -6.068510191314637 -11.29191436976807 -6.754151385088795 
14.92441999863586 -1.169395983941532 -1.614676161846187 -0.4476666842787795 0 6.698803920494076 
0 -0.2133364300550220 2.168607892116952 -0.1169411636763544 0 1.038502184081046 
0 -7.261362918272224 6.316023300589936 -2.699913056004404 0 -3.814819945336224 
0 -4.828501469748754 2.642095706287230 -3.507947802418203 -1.225999404891368 -3.204283783157433 
0 -2.777174254986916 -1.420627559723472 -2.549708013470358 -0.4717175952371341 -1.132119605938402 
10.56385413488650 -3.126108120009767 -0.5922269231372088 -0.8400762807925748 -4.894647234460908 -2.973411595769838 
0 -2.868429624231173 0 -3.723563407951670 0 0 
0 -0.6797471969917573 0 1.743517177358735 0 1.950711850572647 
0.1262805740238900 -9.856624120170400 -1.508597118236781 2.259096376711900 0 0.5826160176768991 
0 -10.79576337919971 -3.719145699238601 0 -1.683921401875713 1.757599934534989 
-8.440400889533118 7.627469278110930 -6.041467926650236 -6.442591609529987 -9.987450042133318 -6.360774173811817 
0 -1.194648497410829 0.8565110391330932 -1.366461490331409 0 3.100719382773237 
0 -1.889290461073653 1.509062262037556 1.191095286858873 0 -2.072703491778591 
0 0.3117344640000036 3.367923502258166 -1.990407089534692 0 -1.717589166991200 
-3.219247369475718 5.022780835991112 -2.993207420230550 -6.024911245783574 -2.714333382511338 -6.818246273792109 
0 -0.2908911054647665 3.730176464757849 0.09824690975887175 0 -1.403283511137213 
12.67525074382639 -3.595042643264923 0 -2.269916911949331 -5.253746549089134 -0.6194186621158512 
4.794623850969888 -3.420589538214522 -3.493065178253400 0 0 -4.444685533730318 
0 1.463878431602458 -5.934202093644076 -1.181929251113815 0 -3.685182028671796 
4.235941691594457 -1.775548684894559 -3.969629592534272 0 0 0 
0 -0.6351502416861949 1.012517951410696 -4.473468380682513 0 2.310946655187917 
0 0 1.155916262763804 0 0 0.7851906948143066 
0 0.7435836905917812 -0.2276802670580425 4.210442455199884 0 1.791341946712034 
-10.23587384250423 -2.291747455893816 1.895086173903541 -0.9687219086555217 -0.2588976673072148 -0.3295640414041006 
0 0.3774504909526191 1.351760534120930 5.701953101667985 0 -0.05280445328740628 
0 -1.026785748124717 -4.552891305994042 -2.548944142083070 0 2.277613290080377 
0 -5.809437214984519 0.1984918498375702 2.667569375557950 0 1.895412411219513 
12.37488612429176 -4.971678472257025 1.982831619532981 -6.302179419960871 0 0 
0.6745646483485427 -1.866512683149788 -0.05676781771303820 -4.374045967195660 -4.120831357959451 -2.341326054905907 
0 -2.907458265046235 0.2434837877149972 0.3091895201466482 -0.2981938352003569 1.687288051142805 
0.9718765500689754 -0.5960169091555557 1.100971778586191 1.033553161210196 0 -1.250444071708335 
0 -0.6468020967593953 -0.3368994272041258 4.460577932552306 0 -1.553110051239138 
4.537496462004305 -7.008271541214631 0 3.551507773043087 0 1.109816654218196 
3.263819954686089 -1.798443962709893 0 -5.852230905532700 0 2.678350293132111 
-5.388439997415321 3.127349660419449 -3.862502792784064 -8.269183030679738 -5.021081637876643 -4.272636863381623 
0 5.751752417224086 -4.971867239045482 -8.759008787304744 -8.398968153009331 -7.239377120969727 
0 0.3271298680488742 -0.7958888215689199 1.076149184393282 0 -0.6160446575505559 
0 -0.7517478871160477 0 4.307093951472226 0 -0.9411219612647552 
0 -0.4181234576533738 -0.2088213629961248 -0.2598070715297735 0 -0.1251972230005541 
0 -1.660769999566396 -6.645940940292786 2.642711100755110 0 -0.2030104382259894 
1.407650395478346 -4.654924257310593 -1.874630818364053 3.724016223799056 0 -0.1139402599335256 
-12.28565534274931 3.799270377195424 -6.933055080784797 -8.061668777318724 -9.774992516393924 -5.658183443937950 
0 -0.6115193203851716 0.2859973235319664 0.3485410925251463 0 3.394450128474353 
0 -0.7921157814812047 0.1760545444850106 -0.8033620410865786 -1.973399045938261 -1.517886937859004 
0 -1.100831364967671 0.3568588975549757 0.2992887112808353 0 -0.6695695854416040 
-1.613444076248972 6.328274123380052 -3.189974813293168 -4.583759497548598 -12.90812247885046 -7.634562369158050 
0 -3.189369387311921 2.525963812964643 -3.915782459973573 0 0 
2.798313778646789 0.7936069934518671 3.416552092634826 -1.529235021385636 0 -3.084066701340831 
0 -2.063377302291171 0 0.6957933697583820 0 1.221086944193346 
0 -0.4262289396254235 -0.7070551287044163 4.125547778549708 0 -0.5044082782916688 
3.716140381618951 -5.708190364158526 0 2.132138030668154 0 0 
0 -2.008483539591063 1.482029869680655 -4.033638252840786 0 3.672291185538255 
5.433685567206992 -1.992456498598829 0.8682063250046503 -0.003660229212628705 -0.3254465294090237 -1.054354162887143 
9.961395793058097 -1.676248301427570 -2.322239136739876 -5.771465517268554 0 -0.5163613905988207 
0 -3.578940745038238 -3.497458755066255 2.486724856197372 0 -2.529632778978020 
0 4.247367485426174 -3.167066753240303 1.647939649827168 0 -2.168013690043106 
0 0.8714611553480335 -1.693918794035606 -5.044049157285961 0 -2.950770627904778 
3.613525579023070 -11.04729655802866 0.08655971818243625 0.3521530028216351 0 -0.5170291739896651 
0 -2.838669502476862 0.4938376671764487 1.784476669823988 -2.243782655218362 0.6884622994055387 
-10.51784886280819 6.822787558355550 -7.570642833088191 -8.185633585590466 -11.10339930765488 -7.726820651658858 
0 -1.315131555315297 -0.5906924431971182 4.067354869379785 0 1.167139132312083 
0 -9.490055662640703 0.2121095520544728 3.616285838135434 0 0.2107761684936184 
0 -4.802512640425377 -1.225398984305431 0 0 0.6115327558275137 
9.713884485218713 -1.959517417018822 -0.9676493615147380 0.1257771480160404 -1.710434516249487 0.7430126370445076 
0 -7.797361037837833 -1.090126918044527 0 0 0.7935007440896426 
0 3.929358816635566 -4.622367687995265 -1.538744931823407 -8.657310117798135 -0.6403379728542204 
0 0.4621393144453768 3.503904926636355 -8.756278908807264 0 0.1943560711328295 
0 -0.2505581879171677 2.081975156297083 -3.639612478659184 0 0 
-2.933177747389931 3.096385531283419 -4.472160102065443 -5.880630093852020 0 -3.038967511597746 
0 -0.04996309790813847 2.719677926397830 -2.350366606055526 0 -1.163102692991815 
0 -6.977799145643105 0 -1.539414563221614 0 -3.055891288464762 
10.05772483640287 -3.857836746242186 -10.91719024660713 -1.014013300168667 -9.526813327916802 -5.089929029420156 
0 1.133585388659357 -4.310548012480632 0.3805159993418187 -7.489226825706602 -3.994491438329948 
0 -3.166247547266946 0.3213528806788195 1.603021524528614 0 -0.08271057818969345 
-8.079436028913088 3.689594222118558 -6.117584170094217 -7.134397018536807 -11.07287519853139 -2.577610017522686 
0 -0.8313513910963974 -1.143068425865548 -0.1629985687699706 0 -3.415794920045808 
0 0.8248024763846927 0.6371859051729110 -1.825103836089351 -5.568604700920727 -0.2753210085088977 
0 0.8164012782722272 -0.9438960203786732 3.210487633854628 0 2.851732038597923 
0 1.391421345632667 -0.4546926987489763 -5.712666929056232 0 -5.551732885943944 
7.595187741654764 -7.791650042498932 0 -8.048020786303885 0 -0.1154475438795193 
0 5.117394793087373 0.9352524600047557 0 0 -2.013629119866995 
-0.3140549869442277 4.566512242788650 -2.365463188955340 -2.406039173673884 0 -6.127436102960524 
0 2.206716932761625 -0.9473298584538365 -0.1825867143080021 0 -2.650100263566674 
0 -5.345637297733849 0 0 0 2.076728769077898 
0 -9.439743102524815 -0.08969351473730912 4.239026269959186 0 0 
2.010491190024091 -1.692865351945931 -0.4349288257695258 0 0 -0.1859169295605559 
-10.39456528978810 5.655998543335016 -7.130258574315883 -7.763842130390247 -9.950508545866846 -4.382511974242136 
-10.72483597675650 6.816172595106979 -7.556195365518001 -7.776827035160843 -11.01887932931579 -7.636034387603723 
0 -2.504410070378170 0.3449195898593689 -2.629936079744621 0 0.9200180845812483 
0 -1.301699400561508 3.882717883098886 -4.065533362024494 0 0 
5.042289524623134 -0.7710469000558240 -1.646451113182277 -2.414791553535198 -4.143216305760928 -0.5452453984380667 
0 0.8463523445662349 -4.429798312234038 -5.811221240377974 0 0 
7.419573711151974 -2.563842749948520 1.195683028022609 -4.280195720650310 -2.476197567723784 -5.495207198289657 
0 -1.750781178959191 2.579633751908793 -1.505497249052235 0 -0.9957323131463033 
0 0.1418950941736540 0 0.3037570814698628 0 -2.135445718339410 
0 -0.9608857270028162 -0.9970182395506655 0.4821628333183818 0 2.173669894141272 
0 -0.6775280998811457 -1.423790336599006 1.599191064899374 0 0 
3.823665159804909 0 -0.6207263045401674 0 0 -0.4333412091494852 
0 0.5649536628502303 0 3.675168328925975 0 -0.5072817013600894 
0 -1.971542911915390 -2.484768047053677 -0.1667337334253992 0 1.814655101522790 
0 -1.051851956376439 0 0 0 0.01195352818917211 
0 -14.33890106483065 -4.517119262517009 2.062401199672242 0 0 
0 -0.2854776387238839 -0.2552820952540857 0.5702797275589850 0 -1.450912943722138 
0 0.2426108150860396 3.206200823900626 0.9449667334830961 0 -1.269379296022684 
0 -9.751824969779468 -0.2663285532182286 0 -6.606530111214640 0.7906632418422735 
0 -1.307001116905954 -0.2677640481440110 0.7251278851314071 0 0.3623952844187371 
-1.508970722902601 0 8.035529845178562 -0.9881610199638370 0 2.040197895478585 
0 -0.1026283636854293 -3.077813115979369 7.587497785150902 0 1.930805798183449 
0 4.207681149761027 -2.099401933295806 -0.9534925240308425 -5.159385927839991 0.3226937609227707 
0 2.114962158912244 0 -9.719575472415388 0 0 
0 -0.7463633690866259 0 -4.132522880206854 0 0 
10.45959857499694 -15.38631815872134 -4.329437366920212 0 0 -12.31174584513084 
-1.544339149345276 0.3209404540525507 -1.876728319740495 -4.057625668095927 0 -1.089168705943967 
0 -3.308863737705798 0 0 0 0 
0 6.992954615018320 -3.130257703563408 -5.515333545051961 0 1.136127737270744 
0 -0.6850813916056917 -1.151769322322554 -1.419143223635998 0 2.658589273776651 
0 6.218325544535816 -2.789718663937128 -1.020141940834734 0 -0.9154601010695501 
-6.511469475254134 3.025825234796781 -1.275048904442901 -7.226225391804620 -10.67584093882807 -4.461503822674274 
0.3629831954564375 -11.02598375820017 0.7283215969436594 0.2401941762294968 -4.463219314657928 -3.134663750475614 
0 2.014587769656392 -1.688077652055274 0 0 1.193043405243160 
0 0.7718873028330039 -1.180912465877952 -0.1052308462845777 0 -0.4067813153660048 
0 1.093329641552767 0 -0.004699240078595679 0 0 
4.570364696335403 -6.610023786595336 -8.388277653060875 -7.957768000395904 -2.451940529416726 -12.25551892196395 
9.648465123387306 -14.23002759134286 -5.708474010693720 0 -6.930111723389670 1.618893368168544 
2.663076626135893 -8.126015862436427 0 0 0 2.116746930448507 
0 1.453484731563230 -1.234537045804442 0 0 4.354819859138374 
0 -1.764248487877110 2.283182691149509 -7.363436927621066 0 0.6030134871708412 
0 -0.3869707037642386 0 -0.3278467998522370 0 2.584332182567207 
0.3833774708081592 0.8511992073974143 0 2.522653346292216 0 -0.5873218434947270 
0 -0.5647094725746354 0 -1.863205469236469 0 0 
0 -3.431509524212845 -6.866585696557531 2.979804524241166 0 -0.2654687222913678 
0 -2.189280859601615 1.338635968817629 -0.4145498473275727 0 0 
0 -1.978802941376180 -0.6226317009224345 0 0 0 
4.840960409092452 -2.814048916942286 -0.3317894353599599 -0.08995331097831928 0 -0.7230755942492556 
0 -1.956778989166597 -0.5649140555867189 -0.2751922651137740 -1.267855567769127 2.907011884097330 
0 -4.618877542042555 -1.500145207288826 -2.975398532615879 0 -6.155693108450500 
0 0.6431397191462813 -0.4204776954398702 0 0 0 
0 0.4414362499787723 -1.085056053776208 -3.397235239073978 0 -6.979416054126063 
0 -5.956586951831434 -0.06932965291337358 -0.6147402032261496 0 0.8852009779913812 
0 -2.966668790648275 -3.460768347611813 5.253612787714562 0 0 
0 0 0 -0.3989790346351072 0 1.406837943451112 
0 2.486485061823055 0 0 0 0 
0 -2.821218916346041 -1.284616450621051 0 0 0 
1.621736464336913 0.3063191206163557 0 -2.043505052142720 0 0 
0 0.5557692415255849 -0.02010547060237898 0.5633915099552314 0 0 
12.42878161656742 -2.035928776120858 -3.253889981022508 -7.351678978227213 0 -0.8391004930429344 
-1.073990637000981 0.02851555676786299 -1.055801886972303 -1.765295571627775 0 -3.007220253296724 
0 0 0 -4.588010816696439 0 -4.824618413082844 
0 -10.30068661298431 1.312483939642397 -5.175433995059851 0 0.8551557982203303 
7.454261992727560 -1.272558185474410 -2.840436158063917 0 0 0 
-2.234968367885311 2.481068500473601 -4.487524866184840 -3.380780788822257 -5.503920438420951 0 
0 -0.05383727954027959 -1.165584741827037 2.166179222041299 0 2.150846996625696 
0 -0.8152594442448629 8.348124494918025 1.426006931338357 0 2.814990487468076 
0 -1.023197786924987 1.219667212296762 -0.6921434321124122 0 -0.8839756649207572 
1.055281758903183 -0.6206714881533490 -1.000022731837703 2.226411352731767 0 -1.059398098902841 
0 -6.012311475208136 -2.650227504155473 -3.220073330766955 0 -0.1534111594693957 
0 -0.7040097735130746 -0.7285168529256482 7.896056743264437 0 -5.441283527465971 
4.895368403429155 -1.660757813865019 -2.805902102619983 6.620054781557620 -0.4702993650702227 -4.402639191703816 
0 -9.606094965818013 -0.9024188008973254 0.3887898440491012 0 1.459238704460062 
3.599192362366856 0 -3.119077913032649 -2.260822180254849 0 1.904609814686208 
0 4.416826276103840 -0.8216580000033515 -7.201088511568156 -7.272248592806070 -5.050110028164283 
0 -1.277894431138155 2.156364544036749 -1.908167430460042 -0.3207488231543359 -0.8112632853089545 
0 -2.326626359881379 -0.1738033440961089 -1.291277670393073 0 -0.8404782757502991 
3.255329790080799 -4.976070153160821 -6.650114481714652 -5.843836931322906 -3.528672284104335 -5.975234448842580 
-4.048762134133068 1.242025750983727 -1.500460255411902 -0.3630278239391700 -6.164155746500646 -6.631508376865744 
0 -0.6773459023541111 -1.149325317777632 2.818801281527922 -0.1070479020910161 -6.322937075394344 
0 5.412611493518540 0.4254681815479862 -3.576081012805586 -3.287590621355690 0.03833589774707526 
11.33387016137346 -4.514981889860897 -7.202660948064212 -4.265626897329458 0 0 
0 0 0 -0.4381609017758433 0 0 
-4.645248802981577 -10.52827022649639 -2.386190766877393 -3.358266441478836 -0.7753932760010481 -1.454584944099628 
0 -1.665042089781049 0.8010032292380973 0 0 0 
0 1.157283818947005 0 -3.007468057490574 0 0 
0 -2.245509973205766 -0.6269370034381920 -2.853895186471144 -4.489123333410912 1.619201544538653 
7.858627818688158 -4.655007969634356 -8.611552243742436 -10.26557031994002 -5.736216317515226 -3.132166561404385 
0 -0.8176365519251780 1.403620488090567 1.644823939798852 0 -3.516758885381687 
0 -3.427793327557380 0 3.642632877267979 0 -4.081482550238128 
0 -1.442656818298518 0.9655276433963915 1.170372792593013 0 -2.981767323239108 
-4.745161867181774 -0.2500855851674015 0 -1.073737836267568 -4.991511761518328 -0.4059274819726191 
6.765592290161013 -1.304109148430726 -0.7423410531770630 -1.874159975606279 -5.179153440214200 -4.919405976202260 
0 -3.588253267979738 0.8525959739874918 -4.098110493178749 0 3.435465625457506 
10.53168325656953 -0.3005488278965445 0 -4.304957564819811 0 -1.762402036143207 
0 -2.581645961431477 -1.915790826359253 -0.9378909111639727 0 -4.685661867471950 
0 -6.941767582704429 -1.388851155472199 1.145860572289392 -2.488789697058199 -0.2404479575980080 
0 -2.971639461864926 -2.746391087833825 -0.5700154516221183 0 -0.2258009501550495 
2.666096971219602 -1.897486071151675 -4.154278720669442 0 0 -2.891881575168024 
0.6705276198754596 -2.780912809523203 -0.4921651204825318 0 0 5.566988012393852 
4.179875204386538 -4.406672231003264 -8.199479606651282 -5.250531395666862 -5.607342412931788 -9.027680307994192 
0 -3.045607024305340 0 -3.908851765749107 0 -0.3912430856794350 
0 -11.69237733003824 0 -1.306945484799537 0 -2.738710094007079 
10.04951468359225 -1.743253577314641 0 -2.462075708968150 0 -2.702942365981629 
6.550274838270269 -3.338154223177993 -2.963933182213165 0.2024291182869734 0 2.136966179694988 
1.004067162410602 0.1670479082820303 -3.232579678402923 0.03544325359796258 0 -2.258090982109045 
-5.278542370449357 5.374914530702035 -1.740370047792835 -4.377506037518771 -11.42995172534599 -2.568246584880342 
0 -1.405350825251809 -0.2571693357467749 3.075479721301747 0 2.535588938715864 
13.39791646749286 -6.137256305334395 -5.646627810778724 -2.245926549636931 0 0.8741105336572148 
0 0.4326822214737875 2.362770532100476 0.09453084111135840 -3.391452240691470 0.7183352953497015 
0 0.9794696614189946 1.573364120361539 -4.588471524634510 0 -6.103211962606244 
0 -11.23373104829738 -0.1634656586433186 0 0 -0.03141814738344327 
5.509404561451357 -1.680807921302829 -2.746660030565793 -4.094255249222742 0 2.270371436116952 
0 -1.997366306291991 -5.290823136273708 0.1895016180273716 0 -7.594066842373914 
4.866761273398207 0 0 -6.452206440211721 -1.065530121806451 -2.365121571973509 
0 0.02575591903293063 0.3799006766095259 -0.6541140202721005 0 -1.812646034945548 
0 -0.1427131365511273 3.889215001373852 0.1896332999382210 0 -1.296769296625869 
0 -1.794678328032877 -8.630453268893344 -3.333490000458382 0 -3.813116160216748 
-2.206423685919645 -0.3665096521969770 -3.685034394056376 -0.03116106274064874 -3.681314173237773 4.879885972247325 
0 -1.062507864788228 1.020686553416745 1.828689027606782 0 0 
9.740005306005170 -3.123012309206972 -4.048784897493043 -8.211340741055258 -3.043060427900046 -8.719404277056075 
0 -9.720847400156133 0 2.400315812642890 0 3.067284079630282 
0 -0.9459954554905801 -3.185551277843573 0 0 4.687088402602343 
12.63772332027674 -10.15751943083876 0.7864265352281199 -3.675854574683583 -0.1486636808295189 -3.898105398118792 
3.006527942659750 -2.708146578255579 0 -0.3429979183297079 0 1.125491839821968 
0 1.852828982839798 -5.567058088052050 -6.866201741062962 -1.898390925889330 -6.092037260549245 
1.677662819964417 -0.4589697651703727 -5.125871764301491 -0.7981948635907716 0 5.581520534173367 
-1.768135293071525 1.868060591272455 -5.962434954357510 -6.059775414603751 -7.709711617031551 -4.494798595253867 
-5.912987171804558 5.046426689517547 -3.761018999800346 -1.512427916744181 -4.201500132248354 -7.251395168006834 
2.400008446611399 1.599064988740111 1.219732391577325 1.666283608576022 0 0.3774323527789012 
0 -10.13663162489576 1.909839086013404 -11.25089183205977 0 -2.146870892854147 
5.533429587220953 -0.8275720976795776 -3.518486260523627 0 0 -6.942140916373138 
0 1.085658141682838 0.1489537544845620 -1.043458742146026 0 0.7737600945022878 
-2.279021136774423 6.947053051566542 -4.304741221888110 -5.842631707578018 -6.998595853529581 -2.594989416664908 
0.4192124939050721 -3.277460397375559 0 -5.643382893260924 0 1.946024208340350 
2.028134065759480 -2.892838645544162 -4.977975598389338 0 -4.165515018401242 -4.442252119333830 
-2.523880724997708 3.741021964965220 -3.996762258383839 -1.964519489931819 -5.705581276214027 -2.818408217068508 
0 0.01993627692604018 1.232829012768264 -1.016502104922784 0 -0.06024158731095682 
0 -3.685316232234783 0 -3.215569659218733 0 1.257982300867897 
0.4458496802423722 0 -3.741413991321047 -0.9995303210333658 0 -4.921448245972580 
-2.781743208091288 3.131701520296786 -3.114865948252850 -3.896047962222988 0 -1.444713259158531 
0 -0.9334646642451492 0 -1.323571903883673 0 -0.6240247461619832 
-6.011510484389282 5.520229651022213 -3.550966070708833 -6.395622335293755 -7.158092710162602 -5.833097336990996 
5.158980327777288 -17.82694250243156 0 0 0 0 
-12.63581497114925 6.516031306512382 -7.801499037520403 -7.460547614724844 -13.57818890664640 -7.827069033823139 
0 2.001691136800772 -0.2288677518949153 -0.1218073126134819 0 -0.2991030230478899 
-2.094040415383886 2.077333689995842 -4.259862765317209 -7.582408507545555 -1.644814312727348 -2.385596111760221 
12.66283825588172 -0.09598920241852321 -3.664821268259475 -4.847555289828472 -0.2995405220352856 0 
0 0.3329935998889484 0 0.4867764131996710 0 0 
-10.88399079010812 6.849367668265907 -7.762131178110651 -7.800861074642535 -11.63835558539925 -7.785217648114282 
0 -0.3654288923135911 1.939825976104737 0.3090752155081024 0 0.6246812880066070 
-11.42603532191813 6.809924353442310 -7.688030474267697 -7.802573327370542 -12.24405580698669 -7.642025415098892 
9.108324327458202 -6.680398179007960 -4.617956626185273 -1.430095579876937 -2.696195528716347 -3.935847759344863 
0 -1.196983411918701 -0.4302013312087111 2.459325994683991 -1.705813740046973 1.092107112013542 
0 0.09212414863793653 -0.3216768959421642 3.592409360308888 0 0 
-1.145631338948318 2.369618772899973 -2.248829989675074 -2.547704439174651 0 -2.113391670628073 
0 -4.516457069104348 0 -7.492407243513807 0 0 
0 -2.269281351589218 4.302321494983762 1.078215513625601 0 0.04262902244564412 
0 -1.700701443250460 -0.04061034432619560 3.449672963004500 0 5.724258898576535 
0 0 -0.2055493558761965 -0.2890430906993715 0 1.638887832059731 
0 -2.016765399899262 -0.8653684792059331 1.083766100446216 0 -1.300019350951311 
0 -0.005858926353381477 1.991237113007980 -0.9136734294842971 0 0 
0 0 0 0.3185250623470493 0 0 
0 0 6.836876610228888 -3.119432565492311 0 1.143827380790987 
0 -5.975053933842688 -4.417009985665261 0 0 1.733881614875979 
0 0.02004083239784726 -0.2697015642629529 0 0 0 
3.432068872018673 -4.701759819714834 -5.997961064575466 -2.567167541198699 0 -5.994108990842211 
0 0.4894391562813504 -2.409764761386824 -7.285779615651719 -7.267246986859534 -3.614097760610266 
0 -0.2078396269686098 0 -4.091848084869493 0 2.119933039054100 
0.09004531682763697 -0.3996186082032784 -7.196609523945594 -2.331933004069791 -3.827465872728504 -8.799573270567366 
0 -0.7812524016143061 0 0 0 0.5933726831859976 
0 0.2209870046506928 3.794234217230794 -1.771152260605714 0 0.5386235061451408 
-3.863307099670034 2.292337743183782 -8.866840816975376 -7.621296486427667 -8.729988640676407 -8.389039094604684 
0 2.272526088722533 5.531369872432368 1.891721728798538 0 0 
0 -0.1884526308225960 1.458996885466726 0 0 1.103571438774115 
0 0.1392543972191420 -3.061081492705115 -2.799395367568902 0 8.768687653402928 
0 -0.3974684387372107 2.382219771665632 -4.430659023706722 0 3.150803972075410 
-10.86585083581777 6.598424404376519 -7.566712480697125 -7.551692923052546 -11.42166405380167 -7.327980508088714 
0 -8.338352849344790 -1.805954454042637 -1.582759528148891 0 0 
0 0.7093955907789952 -6.343236798193821 10.18515982893645 0 0 
9.805773831559295 0 -4.659378453919917 -4.306403111985690 0 -6.445917875111202 
0 0 1.932878994754740 -2.258410125530067 -0.7071366971312031 -7.615609114034850 
0 -1.350738906437817 -0.5227775648575025 0.2299673503024875 0 0 
0 -0.09161475019621912 0 0 0 0 
0 0 0 -2.437555029310881 0 0 
0 -0.06598581041774815 2.719477217503997 0 0 -2.220313698430334 
3.181401376903004 -0.3758601187066203 -3.567788625695775 -0.6273365367322925 -3.987389891134524 -0.3984550753166838 
0 1.133481717164010 0 -1.785117113807405 0 -5.023320621680591 
0 -11.70730653796685 0.03318199235307107 0.5845933743491833 -3.320398660252568 0.6331806184357176 
0 -1.614385120441687 0.3327886056615088 0.3362019553979134 -0.08208835386610347 0.4117255788904574 
0 0 6.132533897280988 -2.110671194562266 -0.2120479983088787 -0.2802804749674732 
-7.009690677705966 -8.311291001361855 0.08232552703518026 -2.313050761511593 6.686044209891146 -3.208905342222796 
0 -1.255191355585342 2.935862005529634 -3.153352619317501 0 0.8790684916481524 
0 -8.989932584660751 -1.213227348728565 -1.013197831201206 -2.388699193439938 0 
0 0.1850450321213454 0.2406217398832720 -1.902830207526636 0 -1.778005513472725 
9.335934289010812 0 -17.06704132606757 -0.3327874531463837 -4.393532141066770 -5.457361230903966 
6.184735606500789 -7.929787952340377 -2.823043439132623 -1.358670656118337 -2.871175790866549 3.620884709840536 
7.402240924905060 -1.815874174254472 2.200557422965931 -0.3353035361252493 -5.100041301172076 -14.79019002472008 
0 0 0 0.3445347975238879 0 0 
0 0.5624187005828554 0 7.618019537829038 -3.291762676794084 -2.203110344077324 
0 -10.20921222941250 2.127734279230160 -6.089805352624414 0 0 
0 0.4001640029142279 0.9102435586378887 -0.01354571103365210 0 0.8628141764984684 
0 -1.084387706247151 -0.4538356129482845 -3.256935277869453 0 2.351539371975439 
0 -2.235186029873097 -1.214013730013618 0.5015748243598427 -0.6600542204963169 1.562010666027406 
0 -2.189707334892280 3.147509302957204 0.5492704003621491 0 -0.7114543410713698 
0 0 0 -2.181234184363310 0 0.09303264969089065 
0 2.300042157493692 -8.491018390349344 -6.437505077840866 -6.976655738900899 -1.242191990100791 
9.547501276938334 -8.488057681938738 -2.819981564568016 -2.985322354407886 0 -8.271305221804880 
0 1.467005792049908 -0.6882129436044315 0 0 -0.3625148297841491 
-2.772289443028583 -1.002342374936696 -2.490130648799681 2.886026051687870 -6.274753692073004 -3.333230757661797 
0 -4.807201585282557 0 0 0 0 
0 0 0.8062398743319810 5.730950673873171 0 -1.850918014886533 
0 -1.000505238661113 -0.5648559163187825 -3.285187680957732 -2.294529514611128 2.964607399630731 
-0.1275885270876744 2.658362923014694 -5.155769463080378 -1.581987935664478 -2.546695754814000 0.9388811805095210 
0 1.470747264690459 2.962242798105310 -5.338404483222515 0 0 
0 -0.5708428286765990 7.358285951423450 -0.2388152939781165 0 1.565403259490759 
0 -0.5644501288674334 -8.618181234505062 1.340166057655314 0 -3.836756613354349 
0 -1.998695915315159 -4.405360874593141 5.528177219211877 0 -2.909622572806537 
0 -0.2928464096325706 -2.410639376658778 0.9981630012326786 0 -1.855127934358453 
0 -0.7756537706224281 -1.079244786352254 0 0 1.345983115585687 
0 -1.763865636713018 -6.762877664469944 0.2544920172987775 0 -2.215875825272598 
0 5.904100952925064 -1.903434042101459 -2.152095383273072 0 -3.239747965704603 
-0.09612799472836886 -1.924151715983479 -0.6062425648915775 3.384817832132084 -2.158874518443362 0.3215289710643579 
0 -0.3685448945545533 0 -10.22231206422526 -0.6822482760638386 -3.730970882664157 
0 -1.975637422847287 0 0.04611072375994618 0 0 
0 -5.100860695737985 0 0.2165717024997196 0 0 
0 3.692701320089096 1.365113839470204 -0.7753101084506477 0.1886067383235258 -1.535941082453238 
0 -1.685385156062817 1.211166798479167 4.379250079651488 0 0.1234237075677702 
0 -2.425522239681405 -1.428184777682647 3.120664689520560 0 2.187683881926125 
-7.614090813626936 3.491497289917248 -8.110263606326379 -5.294119217825374 -10.86838885636513 -5.143040360986348 
0 -0.4700513811524977 1.026463463946548 0.2737378406324843 0 5.870701208649527 
0 -0.3510373387765257 0.1800050011976444 1.106452637419005 0 -3.756180666399932 
0 -3.409630974960189 5.913684352284958 -4.300257518720486 0 -0.3181706119158190 
0 -1.390562975440625 0 0 0 0 
0 -0.3448809805317528 5.670283744850907 0.8068897038671173 0 1.935095840052742 
0 0.3192963045556240 2.372827167130421 -2.085170689233803 0 0 
0 -2.746815880829994 -3.053433910586556 1.190456019696708 0 0 
0 0.6036479513003834 -0.7080279122436574 3.764323326765975 0 0 
2.491360749772054 -4.523693462188263 0 -8.420045531157927 0 0 
0 -0.9985157659740722 -4.507756950673904 3.842847003786913 0 0 
14.44452485278991 -5.098759168249401 -11.38193529962315 -2.157761998612167 0 0 
0 0.006869168116795166 -0.5367365162259842 0 0 -6.372890510429081 
0 -1.454063493719241 0.2955058029870503 0 0 -2.986760941834029 
0 2.794808912453195 -0.9407715700385397 0 0 3.435860893665649 
0 -2.031087519742248 2.131004831957552 1.467893907699122 0 4.256821841003657 
-12.73479960919919 7.090542840609536 -7.988402460935848 -8.030728641429034 -12.73161097923705 -8.117848063581313 
0 -1.375629299015996 0.8327711853303207 -2.323237110402109 0 2.525133925801794 
0 -1.060958462274015 0 2.684307045814769 0 0 
0.8536288037099056 0 -3.199953171367037 0 0 0 
0 -0.9849929467081898 -1.201819836911151 -0.5778663899588530 0 3.425341777161171 
0 -1.067897678982997 0 1.115190894231756 0 -0.01778108229313009 
-3.558306482894501 4.452603132164223 -6.759296715227456 -3.497608178080460 -9.573795630112036 -4.391529680075886 
0.3660948326321892 -3.610783836658813 -7.805223768648927 -0.4426546701012536 -2.999196640896727 -0.3510088644386615 
0 -4.694679678536442 -0.2344975785142770 0.02540509293980622 0 -9.579890927398445 
0 -0.03470577211551598 -2.430483847502805 -0.7750470676387058 0 1.051262168128700 
6.508951017114938 -3.343659327091072 1.232780207431167 -5.841754215619281 0 -1.156512392716689 
0 -1.679461359917378 0 0.3145555284450159 0 -0.02053967148122190 
-4.604739989809149 6.149082619248509 -3.518852943967254 -3.704637857233556 -4.372926317963991 -7.793741742221657 
7.457005921985937 -9.030405497035302 -10.06388478531131 0 0 -3.151740249324709 
0 -1.371830508211362 6.766997730167165 0 0 0 
0 -1.592803985583018 -5.275770793697723 -0.4212119879903928 0 0 
0 -1.441924953496275 3.970243892255426 0 0 0 
0 -3.889495950064973 7.114906796219521 -0.1446722802677755 0 4.008790328613458 
0 0 4.056974501275042 -1.477231627290330 0 1.394427015434187 
-2.611654304646264 -1.665590700234507 -0.2614720196892884 1.388443033451604 -7.592386224023772 -4.657466328703832 
5.251787418440540 -4.070931790327852 -5.291057988486069 0 -6.123325069531060 0 
0 -1.492762079108157 -6.763327966727382 0 0 -3.968289744776477 
0 0.3729376800285740 -1.458972945016723 -5.134307251752121 0 5.811584374855119 
0 -0.4950588695814843 -4.151014824626323 0.4807480176152970 0 -1.971025077942036 
0 -3.946464981634378 0 0 0 -3.628228593393295 
0 0.09788270034771140 0 -1.238216201497216 0 -5.156533463984280 
0 -3.167696470937637 0 -9.235968091590747 0 -3.786131814712516 
13.87524823655096 -3.797795443139955 0 -1.091088361954212 0 0.06558121779954706 
0 4.412765843324404 -3.489418414491231 -1.738212729109400 -3.715838013679074 -2.943101478166485 
0 -2.525760932279930 4.453183443944744 4.353442438009909 0 0.3335061625549883 
2.140613127576148 -4.274789281132814 -5.565364395682353 0.1521689511067619 0 0 
0 -2.142238488373973 0.2135797498123093 0.5286671049023822 0 2.168026857451836 
8.268714051774047 -5.811336967402914 0 0 0 0 
0 -1.247292326220162 0 0 0 -4.332983412465144 
0 4.606826223506987 1.137881168460310 -5.107753832716530 -0.1125015146198880 -1.031660781694256 
-11.56924467943249 6.823838760736312 -8.053236414503896 -7.799679147831532 -12.10158438141742 -8.069876811099630 
0 -3.708394693998040 0 0.4346516213990968 0 -3.464539947969318 
0 -0.7761206170409803 -1.235231488427902 -0.4216586578377902 0 -3.297460700431415 
0 2.469007890922934 -4.417911356400822 -3.271013966792705 -5.571416134767234 -2.754062818387546 
0 0.4518253884194743 0.2109668591772066 -3.492019713468316 0 0.2311482094553520 
0 -3.771681809767471 -2.225311770358514 -1.372382639383830 0 -4.447872390616869 
0 -6.132595678564657 0 -3.086571326905760 0 0 
0 -2.366744468635516 0 0.5190644055140218 0 -0.02440820311155538 
6.648386944370802 -6.797702784510072 -11.79537715529022 -4.440485848666669 -1.593905698279620 -8.464301178260717 
0 0.8295227335990576 4.752886644282354 0 0 1.919935698944911 
0 -9.061926114571150 0 0 0 0.2025125860961324 
0 1.620747160167814 3.002801683387959 0.6426879285639094 0 2.130797343604772 
0.7900904999007853 -0.2900250872565998 0 0 0 -0.2740024309081623 
0 0 7.741591099095243 -1.306758701590753 0 0 
0 -1.576062008055294 -0.2918404964627558 2.091407800119005 0 4.487393933131219 
10.13140826777491 -2.579954945162424 -7.756925064995740 -5.127719294275350 -4.950008318347303 -3.604562801458675 
0 -6.679363382626786 0 -7.459766777985454 0 -2.782540113947590 
0 -5.293757896075678 -0.3603542871149860 -0.03865267081141190 0 -8.223185933017113 
0 4.281848111715343 -0.5786859268684340 5.957729767313087 0 -0.01131590225547451 
0 0.2500834717713615 1.454688419185205 -0.2395575157521429 0 1.751988268110130 
0 -0.03941886912646075 0.5751273631500150 -1.903237316689946 0 -0.8845938117680587 
0 0 0.5222401549193996 -3.358800626958865 0 0.3446748669098891 
-5.825408590871406 -1.180992030862966 -8.417712512697065 0.1481090921775635 -4.741098791152155 1.128005818350142 
2.567035365094018 0 -5.797619679542039 -4.775602208869601 0 -3.234286736785119 
0 -1.975576811418730 0.5698174666706453 3.564801212250977 0 2.613617983218263 
-3.166322947121620 8.051580918879763 -5.225240367581291 -2.561661639832879 -15.72330774141549 -7.402601880509600 
4.588853495413039 -3.914369177997552 -3.876587833808565 -5.408705802284994 -3.200841331251673 -4.514220819164901 
0 -0.01733136985401962 -0.08824607602832985 2.728136366797078 0 -0.8887580939300467 
0 0 -0.5362393146839290 1.673572082141345 0 0 
0 0 0 0 -0.6527718819179418 -5.203462230879909 
0 0.5640517702759666 -0.1529243158194919 4.139440646501421 0 -0.2715829201691378 
-3.411031531937638 0.5315938932970440 -2.128851160015961 0.8416708136301173 -8.021659919797202 0.5557072884887314 
0 -6.690744950227335 2.563783450058211 0 0 -2.173906439988731 
0 -0.5100994909361073 0.3492648610909714 1.389637192125544 -1.544174791162081 -0.1070593546751679 
0 0.2442931403193732 0 -1.698786671831870 0 0 
0 0.05548793516606254 -0.02494825484004462 0 0 0 
0 -0.8102427369683802 4.994671555492499 0.5140526764599299 0 0.1383673420033855 
0 0 -9.125715021147832 -6.729633489948347 -3.531134025309684 -0.7224193062366359 
2.128527562192182 -7.643372686483436 -4.651098202403823 -2.046379843908345 0 -2.190235681749090 
0 -1.306713323376830 0.2192092826520501 -1.042674340768709 -2.409573898199133 -0.2041751990332836 
0 0.3407968033861707 -7.673424030333112 -2.806424592552283 -9.128672326514497 -0.6602053317337264 
3.971456269073610 -6.366714777582502 -2.247270100742887 -5.130776309303860 0 -6.380618926319903 
0 -0.5925007784038947 0 0 0 0 
-0.1692602100038501 0.6280636283544780 -8.437048862386847 -1.788625142194180 -3.079006906652272 -0.7239285165134669 
6.556774898335537 -7.404986593081860 -0.9611684143959640 -0.02272071260313866 -3.185566526846675 -5.788123402939233 
8.517750617970608 1.889707888947834 -5.954033605485407 -3.745329596826892 -6.549652888066110 -2.531647427087553 
-0.2107054149124491 -0.4794648999803832 -3.568005352859410 -9.952499234743780 -6.421824028941722 -2.082911254996938 
0 -3.530391167923186 -1.061159103482001 -0.7069394349808278 0 0.9194266636700169 
0 0.5888639276843288 -3.674113851745791 -4.423574927704455 -1.045564992369373 -2.155038714469328 
0 -0.5876457421055967 0.1813252434261172 -7.176742272689873 0 2.652520997489927 
0 1.267077552206671 -1.278513384268735 0.5311831919389668 0 -0.7959836683538418 
0 -0.4442230634780065 -2.752499613532120 0 0 -0.4509385801061431 
3.151462760666972 -2.778734207316357 2.561535703360229 -0.8764150980469690 0 -2.067573351971021 
0 5.391381321335079 3.261694712891389 -2.709642317660122 0 0.1133385635977354 
3.606511351357215 -4.337722316339201 0 0 0 -5.184627478212039 
0 -1.264058577552173 0.5905782453451558 0.9782971987904704 0 0 
0 -4.676911868096878 -2.617938926282062 3.110991909226914 0 -2.342399475193583 
0 0.9010876433109178 0.8561999049337506 -0.3677362691490922 0 6.016418965574440 
0 0.6283388871501976 -0.1184474727461405 -1.225609121083804 0 -1.128610729244946 
-0.4772775732934471 2.693939464605977 -3.149817036472863 -3.769316545478140 -7.783779164701321 -1.977075387774504 
0 0 -2.087330861578086 3.503688815045599 0 -4.329185440478262 
0 -2.289697088633916 2.107890101623164 -0.8573369912502540 0 -0.9396520025795649 
0 -0.2840147558668586 0.5953795613470844 -0.1360068992531742 0 -7.365088117754747 
1.556147679393926 -0.9865482209336601 1.384081022690992 0 0 -3.114253982523259 
0 -8.640765325453408 0 -1.411938520719942 0 0 
8.794176643249909 -1.778037118273846 0 -4.822729604414099 0 -4.960796195409392 
-4.295438964815087 3.964903403348746 -5.486105444856339 -4.390427430731013 -6.452729453935460 -5.157898035822313 
5.510876859029366 -1.592468792157765 -0.8478523777945084 -2.585967806931724 0 2.585067024597830 
0 0.8074376809329530 -0.7210209098428029 0 -0.8016737006865978 1.640951208884280 
0 -1.278453484869204 0 -2.270050625977675 0 -6.699297209146152 
0 -1.658835766440189 -5.364881511066978 4.663321281083681 0 -2.890656017643720 
0 0 -1.442776031768365 2.924026295379000 0 0 
0 -3.980723085466009 -6.492209138121366 -0.2158636413861193 0 7.805508888296077 
3.747659021205361 -1.575194961067692 -1.540002433100474 0 -6.584358184341211 -7.314041063384922 
0 -0.5189887214269700 -2.254879314409002 -0.7852106988300764 -1.876499442061707 -1.938176624405897 
0 -4.505120616724872 -2.156797814948008 -0.07606375641391623 -0.8055487425788630 -0.3978102670279781 
0 0.6737158689131721 1.910287268774470 0.2961431442507021 -2.307098849411643 -3.516138556563206 
0 0 -4.087806621837816 1.412812708710519 0 2.107929910907202 
0.9156786004460340 -7.064286720259657 -5.978071407521405 -5.734175804826715 0 -0.2941620126117980 
0 -1.436623831210980 -0.5833746949103505 0.5330309233660607 0 -1.698342007764370 
0 -3.555455031955468 -0.4109979426879716 -10.72567935641101 0 0.9212179729432161 
0 -2.012896170036644 -10.00216079110081 2.681417960328758 0 -0.8590405080788531 
0 -0.1976846370206282 -0.4161517269338128 -1.524009724405453 0 0.09538186356313705 
0 -2.457772361553858 1.813195828216411 0 0 -1.115631193053872 
0 -0.4889200831732030 -4.384835020872565 0 0 -0.5871687545241236 
6.275716735407636 -2.376547941550630 0 -3.510973885975167 0 0.6430901847547308 
0 -4.006033684640969 -2.177071190916927 1.684687002125977 0 0 
0 0.5503916610046496 0 2.646358455976122 0 6.163988767715336 
0 -0.2583431263427882 0 -7.814328319289404 0 -0.9377335043575590 
-2.489875113872127 0 -0.3449870620596380 0.4845725805895708 -3.734280360460224 -1.281941677159842 
0 -2.200597681334660 0 0.06862834191123670 0 -2.899134968606128 
0 -0.09966106900869556 -5.210369781432977 -0.6227376841815095 0 0 
0 0 1.067335411252278 -0.1119046199885222 -7.903164066330150 -8.861710355103948 
0 -0.4061996199901808 -0.4891857272801680 1.713597218574936 0 2.064164552862538 
0.9493895501959594 -4.676146004189071 -1.136168303100759 -6.689352060708861 -3.955335050251065 -4.269278371861999 
0 -1.419416414531213 -0.1878104494930541 0.1704862976961423 0 0 
0 0 -1.572574754858573 -1.619009586676300 0 -6.889908986251504 
0 0.9656354495014611 -1.551845203468440 0.1176695640205981 0 0.4757738723428441 
0 -1.433494602916026 1.326361874968836 -0.08735183634445394 0 -2.052009692074269 
0 -0.6631305122678834 0.7773218211298211 -0.8095367178701179 0 -0.09998051905070254 
1.315295246784264 -0.4874366224196071 -6.898462786921979 0 0 -5.439251450844288 
0 0.1669265846462480 -0.4671740201091224 1.647699521468497 0 1.252154996998891 
0 -4.621463643543837 1.042207020363217 -4.856106047147551 0 0 
0 -1.662812481545375 -0.8992935541374047 0 0 0 
0 -1.049784498585446 0 -1.450535856656273 0 7.858320309948583 
0 1.320070216365576 0 3.689743577532851 0 0.5952076768406734 
0 -0.1457593995210043 0.6012197147544320 0 0 5.116876949852507 
0 -0.08038663163918610 -5.457855332789035 6.923651444300506 0 0 
0.4087631591683174 0.1598004710733774 -1.351236313181884 -3.628027890750486 -14.40357128076447 0 
0 -0.6454853519637751 1.421085589837787 2.082634274153916 0 1.083032772173086 
0 0 0 -4.756987498887709 0 2.957216832194176 
0 -4.341261776957479 0 0 0 0 
0 -0.1890339407715582 0 -0.7202927112396885 0 0 
-0.7414211714620593 4.131718082029657 -4.405520604105859 -4.278049593551677 -3.865895257155707 -5.205647583183882 
6.067948238862739 -7.431933643062427 -0.8751437564209295 -4.407847794882900 -3.388552515870467 -6.463908178530434 
0 2.215512944384842 0 -0.5028725748342002 0 0 
1.713911425646937 -0.5747684003082149 -4.668623030991970 -0.1873511573174144 -1.825950692423724 -0.7867404884560555 
4.705648169987873 -6.228073492429210 0 -8.171223961132462 -4.936073598881570 -3.333570083469592 
0 0.1468019366799942 0.6535671221732534 -1.097898317429164 0 -3.154256216755824 
0 -4.656686465355303 -3.585729464504309 0.3129049922652550 0 -1.669935301117015 
0 -4.012456549986241 0.3484640516479031 -1.530582638347323 0 -5.607257393436163 
4.845317274745433 -1.234511011117980 -5.281243726707204 -1.183764800403839 -4.481117454940393 -1.031273033154630 
0 -3.254426400487959 6.447141787638554 -7.815857059701495 0 -2.031616972211872 
0 0 0.09609344173712946 1.012132596501538 0 -0.8622052242998458 
0 2.736267580204630 -0.7153316491086460 -1.543517055296112 0 0 
15.26023347583306 -5.503355565831221 -6.624403136151026 0 0 0 
0 -0.2096846990383145 0 0.1951915057163773 0 0 
0 -0.2683569269622496 -3.502978661959325 5.598945151468544 0 -6.663044128270480 
0 0.4276407467682628 0.8958639224382537 0 0 1.423981574253762 
0 0.07175351569868184 0.9431416157845056 1.044740663108601 0 0.1249946025831903 
0 -7.446322824707146 0 0.9503979888250246 0 0 
0 0.1619135602632578 2.216804640221727 -1.262705256012338 0 0.1164819788193945 
0 0 0 -1.436384646974031 0 -1.231499833063736 
0 -3.230929025758621 6.604029331474230 3.395687873894558 0 2.971944813087446 
7.566673874275239 -2.776910974080187 -5.983371729506017 -3.258969147546434 0 0 
-9.185708938313812 -1.360090715816648 -0.1922551792893743 -0.07818082562679410 -8.166872075811206 -2.686736400334600 
2.460655679333386 0.1049358820676901 0.09473847670827118 -0.2732745269539263 0 -0.1104208248232993 
-3.549989407071296 -1.156287682883516 -1.639159355453865 -1.516597016531902 -8.782425860861096 0.1003753158008360 
0 0 0 -0.1863288008701036 0 -0.09461840324890791 
0 2.120307928945127 2.594762375193181 -1.075525183146559 0 1.678388699195072 
0 0.4482116654412996 0 -1.246236142629703 0 0.9859796434985237 
0 -4.489881281965731 -0.1738963035592732 -5.325227014799427 0 0 
0 -2.905472513179686 -0.4202194227205760 2.465373126803301 0 0 
0 0 0 0 0 0 
0 1.473570401482914 0.4376708283839214 -1.418093031983910 0 -2.195549897524912 
12.45857358882299 -4.180493904620875 -10.92509012279807 -8.962400862959685 -9.620911077627369 -6.620116458033137 
0 0 0 -3.993126550412969 0 0 
0 -2.024445466049445 -2.244102649643141 5.332402267143003 0 0 
0 -2.198023653516249 0.2149558847468901 0.04670046379343198 0 -8.242043513221716 
0 -0.3990296225507198 0 0 0 -1.399293227496573 
0 -0.1465862073291179 0 7.437979918154383 0 -3.150550780274349 
0 -1.208230890702555 0.7924709430783774 0 0 -0.5239742339779461 
0 0 0 -5.590052206675677 0 0 
0 -0.3553241743463693 2.981164772997087 -1.338621601309429 0 0.8021157573944311 
0 -0.2673158629769166 -2.507392998594524 -0.8331171464227837 -0.04523424283370260 -2.610408085528463 
0 0 0 -1.997725949181076 0 0 
0 -5.849960220382179 -3.297362448761640 -0.1056157315834621 -2.601588109903873 -8.116122560929362 
0 0 -2.043439789505821 -2.265107125428251 0 -0.7642807032269416 
0 0.05947727426442262 0 2.393022839683075 0 -0.1793258672257687 
0 -6.720033639371082 -1.513218026924362 0 0 -1.593649627517241 
0 0 0 0 0 -6.070924298380633 
0 -2.320078520322500 0 -0.8632954131203638 0 0 
0 -0.2131326544244988 1.091252754748344 -3.409176231529596 0 1.447730258085614 
0 -0.9854761950668220 0 0.5258516735175442 0 -0.2907790626750666 
0 -1.630774342813957 -2.268850669339779 -2.494297103633160 0 3.531973234055991 
0 -1.500655030495980 0.3721656351963417 -2.131246286147608 -2.620698833228070 -2.521524123393471 
0 -0.3380308314693040 1.691712951112635 0 0 -0.1338510180563675 
0 -0.2393423646924777 -6.280628566136154 0.4632692464941779 0 0 
8.529039475290555 -6.927438207319818 -6.045909402326111 -7.674860255368791 -10.04677723705112 -7.183228023037703 
0 3.799680320609064 -0.8836096099131254 0.7969231730300748 0 0 
0 -0.9791309956708806 0 4.444367291170070 0 -6.407896794721141 
0 1.040243262331309 -0.5388915573090431 -6.211954233687147 -3.918122924250456 0.6159265800920002 
0 -0.1775130954862393 -0.2449462592611217 -0.08650231273992214 0 0.5858852404178779 
2.406515949619972 -11.02112830867080 -2.223607608279143 -3.920117541248466 0 -0.7297781193231588 
0 -0.9253094556030333 1.304632773962082 0 0 2.555484198940809 
0 1.050448444407488 -0.4827978898028316 1.776677781253375 0 -0.3504816189864685 
0 0 -0.5667337316677725 -1.752965893912323 0 -2.691855863822775 
0 -0.8240248124483253 -0.7569041186208008 1.907407037828527 0 2.568122867141559 
0 -0.8992390684276219 0.7528905916423997 0.8479312513214547 0 0 
-10.57485357037915 5.612412643870859 -2.801450929812264 -2.622705042500725 -16.36371236463346 -5.400058611134851 
-3.140215491490617 1.063416510169689 -7.335731363689042 -2.872715803291674 -5.527175220027687 -6.971687291307723 
-8.581428165767374 3.869949928561596 -3.808498794967088 -5.233638335037853 -7.019409841996408 -1.534680239435761 
0 -1.952668132718851 2.419636732562181 0 0 -3.247019867201076 
0 0.009684099715935630 -4.568900329067583 0 0 0 
0 2.188879811639867 1.449442980910807 2.738859022633309 0 -1.058153412452447 
0 -2.682334820323836 0 -3.376867375376734 0 -0.6297757164051327 
0 -0.3829559003546234 3.014083306602321 1.438216135435100 0 -2.758708320517097 
18.03064219319895 -12.84980667030742 -5.982263411487624 -6.575509393339732 -0.2989705304201746 -0.2096631130594440 
0 1.771942210244164 0 -0.3240332041310300 0 0 
6.956901105152545 -7.183577529220480 -6.887716231117627 -6.823613932503674 -6.928828126873766 -6.760629687281663 
0 -2.398271886464023 -0.2541758365715633 -0.6159220169137198 0 -7.348062014860643 
6.909695821803308 -2.825015843231184 -1.088113692589480 0 0 0.4335206213590659 
2.424596807701422 -0.2894700368315968 0.9472835207034546 -10.46080160302785 0 -0.4908644936215690 
0 0.4473454003920299 -1.189227972041664 3.487989782924871 0 -3.165573515187490 
0 -2.094714583735811 -1.572386611644899 7.804741805449129 0 -1.704464348672291 
0 -0.5171979659990906 0 -2.018422478510229 0 0.7619071424278973 
0 -8.697212227020488 0 0 0 -8.404967086882944 
0 0 0 -0.4975990718972666 0 0 
0 -0.5822528582817936 0 0 0 0 
0 -1.178755812158993 -4.798923456282298 -3.069246871856867 0 0 
0 -2.024039083708827 -2.462198855965547 -2.430532699186546 0 -3.698912609658525 
3.164558769118073 -4.735826171991811 0.8366711958135632 -1.656823015491380 0 2.877471094619312 
-1.018762850166321 1.932549516055560 -0.8441831380599071 -2.155716654416960 -8.317600796378628 -1.209082712998789 
0 4.009102480437809 -6.851524771168399 -6.274554379421518 -10.57791955409602 -4.589373785690360 
0 -1.501607041987809 1.105941556925596 -0.2480002472364029 0 0 
3.023505059853782 -0.2537948729246415 0 -2.174426701229413 0 0 
7.733314112897577 -5.440263796009383 -7.066932836363022 0.3839374873433944 0 -8.171108885713645 
0 -3.167938577094080 0.4456608754461124 0 0 0 
0 -2.540278958582705 -2.468638480015743 -4.855326864965146 0 3.557720544239256 
0 -0.7269650962631820 -0.9731743738669556 1.988266916416096 0 -0.4513214357165227 
0 -6.252221155433045 0 -4.470702791014646 0 -0.4964969977946714 
0 -6.769788982978249 5.342263753773918 0 0 3.029593005930483 
0 -2.739430993519736 -1.414180616881123 2.456647143780029 0 1.129616691187180 
0 -2.809235843087364 0.3291861152472924 0 0 0 
4.640518075401261 -0.4040527759764450 -3.126893323722097 0 0 0 
0 -1.899081312083762 0 2.205169509531275 0 0.08452411722974161 
0.6766302441462437 -0.9056903667961738 0 -7.288731265435450 -1.853585962222762 -1.096453834145718 
0 0.6832044044093029 -6.498261607132696 8.876102996177437 0 -4.890720220208723 
0 -0.5531918731192866 -2.300548628335353 0 -5.579641474035133 -10.89570232848880 
0 -0.2225726613253825 0 -2.581874559578750 0 -0.08350814058665867 
0 0 -5.915750758005564 3.341843376447080 0 0 
0 0 -0.05511510089789631 -1.847616106149742 -1.145428053019612 0 
0 -10.04151345843867 0 0 0 0 
0 -0.3876821135151932 -0.04420638729935820 2.703100611293167 0 -1.265848668201267 
0 0.03423601337145832 0 -6.195797016252945 0 2.799474770390700 
4.213420165997106 -0.08500782390905526 -6.737179329190790 1.503807914798003 -3.874718791097690 -4.191374704992184 
0 0.2300666221684496 2.160304663162943 -2.488984201740456 0 0.5428938624450936 
1.545936582032985 0 0.1663046288609844 -4.519842581864953 0 -3.145912840218327 
0 -2.583088166630861 1.210519547299929 1.856940675544750 0 0 
0 -0.04519026626015432 0.6949279577839921 0.5907815342563099 0 0.1547585888383521 
-4.391160100282567 -3.430014941018494 3.146410505093980 2.925961680315893 -0.8330970657534358 -0.06450919782826627 
0 -2.389184674726987 -4.088021187645007 1.917595497578178 0 -1.455850478390474 
0 -1.409400466668486 -2.023993387990843 -0.3752383449094583 0 0 
0 -0.1477745000082603 0 -3.310193949044637 0 0.6329030072411479 
0 -0.3800769852199317 -0.5088476349234964 0 -0.3462456416823321 -1.108458941035257 
3.493758259206484 0.9570408015280920 0.9767217780594676 -0.8310620181387196 0 0 
0 0.8108919871004602 -1.252586834495299 -4.270195150497937 0 1.526039809779699 
0.3986688087508075 1.848973038120872 -4.299111939321045 4.028595969548308 0 0 
3.389633718356009 -1.086494887514715 -0.2076362600375864 -3.055334431002498 -1.939049993095868 0 
9.741653676526246 -3.902220820918236 -0.9875025650998057 -5.891268553511329 0 0 
3.184945378205951 -1.841336961341087 -0.5868469202016121 0.8994446449216980 0 0 
0.6975178585490392 0.1781243168591528 2.824759768172978 2.291821943084983 -0.9343142605107166 -2.655662653952035 
0 -3.249760508124358 -0.8114531327905314 -0.09903054304970416 -0.8898841470336640 -0.4323465070073064 
-11.39975794819874 6.498626670145884 -7.721616517708769 -7.655652864938476 -12.33962144982217 -7.827562600868480 
0 -2.559804041921449 -7.854797923751652 -4.854978098105975 0 0 
-0.9362064606265075 -1.798195105030149 -1.314273400903328 1.754709265481335 -0.9296217103016295 2.502076306072393 
2.915607683293978 -2.057964176211587 -0.02476319195434514 -2.090843075546077 0 -2.411973682170246 
0 -1.662474942504149 -1.185211078601159 1.455118826975368 0 0 
0 -2.766069609667693 0 -2.215352804830665 0 -1.335345100752748 
9.159745895297206 -6.896631586876191 -1.041107497921296 -6.154765185657831 0 -1.983056282458724 
0 -1.827406899234680 -1.226143974493961 0 0 0.2243312795369621 
0 -0.2781861752035774 -3.190681788168783 -1.254440708324861 0 3.290024308375859 
0 0 0 0 0 -1.138224420180138 
0 -1.686801282135155 0 0 0 -3.865683767579122 
0 -0.7165966599861958 1.779611739494684 -0.7555496281332978 0 1.876936770951826 
-13.26431317527328 4.271065034016268 -4.482626614111356 -7.063863970571624 -13.69722196004712 -4.286284940657421 
0 0.2231588279695191 -4.257916652590268 -2.089681509540566 0 -1.693963146634408 
0 -0.3339456449862072 -2.289418281751087 0.8756957244849130 0 -2.791860497994323 
0 -11.05582187259895 1.724273172297909 -1.666730328285619 0 -3.135600396050303 
9.448771770559041 -7.084173832074884 -2.798972539262868 -3.183687946999100 -4.229239273630153 -0.4020815172826255 
0 -0.2669517027992581 -2.287778245444849 0 0 2.833360100561451 
0 -2.039978170932301 1.845811311837049 -3.616693274247688 -2.750189751912806 -11.27280799836355 
0 0 0.5936897014938273 -2.458970309901548 0 1.546528064296510 
1.630792896044619 -5.869857070162052 -6.777689369470438 0 0 -3.195686513897779 
0 0 0 0 0 0 
0 -1.221012681179666 5.857975674735746 -3.888881310598079 0 -0.2440877644581408 
0 -3.607685480854342 -1.792302530664309 -6.826551758354475 0 -0.9363430349072651 
2.707226484141987 -4.761087397684339 -2.380624627954863 -7.388383681880711 -4.539654429045123 -1.699757771063017 
1.578827470613274 -0.9989170851821052 -1.629590734531550 1.771559750660353 0 -7.072288575899157 
5.858170048123108 -1.855037950513141 -3.504442135589654 -0.6911655037970819 -5.476312024601604 -0.9095617073939076 
0 -2.931147795712468 -0.1986313981886818 -3.544995327593664 -2.591688628757184 -11.14147225782791 
9.151367778930450 -6.440745916423766 -3.723973616218766 -6.743431515240239 -4.123512013329529 -2.717727003831955 
0 0.5977117022172289 -5.954908646392511 4.266151264390261 -3.351533204591259 -3.009331009276290 
13.20804522945862 -6.102019553201853 -6.834573743565716 -7.083998451883237 -13.20714804869783 -7.622500545533436 
4.764775175670454 -4.975676031614423 -4.408000007681906 -0.7931823981370334 -3.669310310875583 -3.910035789968983 
0 -4.602291134375323 -1.342898013062028 -4.810879552338315 -2.289994904907946 -3.490804402595487 
4.040708678734506 -1.622522798170262 -1.095333446738193 -2.865445171912516 -0.2366169949215375 -3.581846405038253 
0 0.6278034769448595 0.7662466081108167 -0.6313490427229317 0 -1.471473283154282 
-3.009618968952916 3.184037884430707 -3.151792101800497 -8.624156353136074 -9.777158151076840 -6.402460506829702 
5.532584000144260 -3.681383980770224 -1.861202464520524 -2.069743746121364 -3.430206551326625 -1.930604366001392 
0 -6.911498054530498 -6.614688214598407 -1.672315834563579 -0.4662057965733950 -2.395563098155833 
10.99606689661171 -6.074252112976592 -2.465215877958305 -1.400541827439167 0 -5.474765433257026 
0 -4.663587939194074 -3.385966012737132 -4.439431243904798 0 0 
0 -0.9241189239514185 0 0 0 1.108122943373072 
2.723083641140297 -5.708945259484773 -8.305967351836303 -10.30902253602338 -2.133545359341480 -3.298533804883420 
-5.693254028234182 0.4756108041388533 2.284724512121534 -0.3264294767579979 -9.288312664141400 -2.597074838706183 
0 -0.7286955751809473 -2.939384279852837 -0.8239799872875739 0 0 
0 -2.528144310341589 0 7.300276472090923 0 -3.580505558519019 
0 0 0 2.532216732146919 0 -0.7922907133380872 
0 -2.711108632503115 0.5474018967902566 0.2975746611526119 0 -1.407875902806755 
0 -1.442774557212007 -0.09617777644646508 1.274039764481679 0 -0.8180496823983431 
0 0 0 3.854070347966524 0 0 
0 -0.6236798420797062 3.147521612460285 -2.571844771239178 0 0 
0 0 -5.982977133085875 -7.192421205786743 0 -1.969194565013044 
0 -8.254536404239087 0 0 0 -4.271842991468121 
0 1.344442935143147 -2.150900875863724 1.514788456152336 0 0 
0 -4.520167061732929 0.1372196900251748 0 0 0 
0 -0.02816017845206800 0 0.3204430636544560 0 -0.1150382421529768 
0 -1.618982772354666 0 -1.583248354381868 0 5.103976068223481 
0 0.5116523345948558 -0.4794808163249733 2.846556705487041 0 -6.915077481829609 
0 0 0 0 0 0 
0 0.8661773823230039 -4.206914619975807 0 0 2.475008173802821 
0 -0.7163591976827847 0 0 0 -3.552877746629282 
0 -0.6093121817887828 -2.447197991732155 -1.000878908917789 0 0 
0 0.5650154494280755 0 1.649271920499196 0 -5.900041560927612 
0 -2.072755980222952 -0.7408596325662498 -1.932761140046732 0 2.020666090163668 
7.097874137982046 -7.895476875435437 -3.952507383748366 -5.724658912008939 -3.512226671866412 -3.343342562758380 
2.567538696699824 -2.241686312500889 -4.513261374589141 -5.263078712407056 -2.479804073503616 -5.253336168225207 
0 -0.08628462505445089 0 0 0 0.3898781617748985 
0 0.1851347474151145 -6.316016664662977 -0.6584325680396335 0 4.624319038496402 
0 -0.7768896715201374 -0.5476684381620205 0 0 0 
0 -3.469593657156142 0 -3.359829492561449 0 -6.074481237619782 
3.682388156941192 -1.261876225567594 -5.284544742012327 -4.296832770101553 -4.396503435549591 -5.597086904871810 
0 -0.8741564133332576 1.536828259239972 -1.395692020393998 0 0 
4.375450872474797 -5.994080394162588 -2.603779047913577 -4.526777824673426 0 -3.632362085640158 
0 -1.195536983486002 -1.225404006888689 9.248027245610132 0 2.987913647352261 
0 -2.743218833191622 -2.561320403770120 -2.290528392640685 0 -1.627481987229283 
0 -4.015740141968484 -1.993758307281444 -4.883050877789041 -1.547807118368514 -0.8980832703983955 
0 1.665032660876194 1.002978469223912 -2.535796689596070 0 -0.3626012895858116 
0 -3.714087940223971 0 3.967215568342684 0 0.8159434011054642 
0 -3.821706434391540 -0.7996187886753873 -0.5844423862566118 0 4.105776666649192 
-11.85538562442712 4.144085716210295 -4.924465392595088 -4.866286339322282 -10.37089325571684 -3.065061095125713 
0 1.198645606052057 0.5896057428493250 0 0 -2.554587191337117 
13.32289249077342 -7.498239142903004 -8.519786755841180 -7.830151443000113 -5.694540673044346 -6.492269654352788 
0 -1.188532540039972 0 -0.3646644356246297 0 -5.296614151882872 
0 -1.248986899005914 0 0 0 2.491148913369730 
0 -8.765725642650729 0 0 0 0 
0 0 -2.232332000262470 0 0 -2.502392490612345 
0 3.981777080834233 -0.7632377184307111 0 0 0 
0 -0.1761283360841492 0 0 0 0 
0.6459995169100471 0.6790657870983623 -0.3708605472585825 -0.6381422024626802 -3.102483735048383 1.222827988729660 
0 -1.591881284760523 0 0 0 -2.620090468074483 
0 -5.595191351500935 3.177598136419131 5.408959507273470 0 2.163749791964555 
0 0 0 -10.98034967451419 0 -5.695249365570150 
0 -0.8033892991759843 -5.594954840383967 -1.692902054026570 -1.042069305332946 -3.160577010994053 
0 -7.153031874023085 3.670181547717630 -5.517473514243572 0 -0.1459694238991513 
0 0 0.0001816099410145711 0.02059876380587750 0 2.407934426044987 
0 0.2250871055493001 0 0.002341186733100131 0 -5.289451064640142 
0 -3.327463674906877 0.8428752876007285 -1.114731520079965 0 -1.271229755193559 
0 0 -0.3930534195525004 0 0 0 
0 0 -3.882695621166132 0 0 0 
0 0.1056784880517794 0 -11.62314376412114 0 0.1861928199563329 
0 -0.6321455596795051 -4.024725185232063 3.535693140428048 0 0 
0 1.390675440559658 0 0.8272860728781515 0 -2.249284150171959 
-8.060064519628508 6.668177632996309 -9.111146819745077 -4.557590470530975 -5.076560286839764 -6.561737677742970 
0 0 -1.306954741161336 0 0 0 
0 -0.6837051701764920 0.1482071596300957 -0.4036354966915463 0 0 
0 -0.9699920978883299 0 0 0 -3.011218441786793 
0 -0.6426304744969793 3.450766262093423 -2.420019835274039 0 3.292971745537191 
0 -1.393510800517591 0 1.505978037178723 0 0 
0 0 0 0 0 0 
0 -10.94166374342180 -2.025003306406564 -4.457147797980360 0 0 
-3.659079796262035 -5.429903324841978 2.193276605168188 -0.3736403295743097 0 -0.7060839662895049 
0 -1.939560239402928 0.8028258182174867 3.467363007041765 0 -2.846347757198855 
0 -7.896353809830941 2.804583371297862 2.489859391063321 0 10.59593615202811 
-11.97986788562410 6.375804117613703 -4.744857017914675 -4.093818792871253 -7.932238903835112 -7.668939495584774 
0 -1.228240253253760 1.139899720226776 4.500195243330211 0 1.973577371555890 
0 1.905252034014233 -1.023515516161017 0 0 1.945518270589948 
4.955554404910267 -5.119459583449834 -4.315346064148566 0 0 -0.2989910775678160 
3.974861192641362 -2.867061832904440 2.747223024485844 -2.114636273843354 0 0 
4.448931558454756 -4.127101630795149 -0.4476566027237278 0 0 -1.081784711075551 
0 -0.2659724130023939 -3.408576858063942 1.116492294284189 -2.427721742082999 0 
1.652970323221391 -1.060946603169966 -1.783849787027444 0.1160652850884227 0 -0.7283195961881647 
2.623221174036219 -1.080081924351277 -3.631785220547276 -5.444340297231139 0 -3.416397955879466 
0 0 -2.472838383950716 2.663962500272656 0 -0.1144881666122306 
2.839549321802763 -6.361821349465407 -1.665555345805066 -6.089389963751153 0 -5.646456705656092 
0 -10.16513821687409 0.1422014744120896 -6.060686182365826 0 -0.9579342500475081 
0 0 0.06278120024233749 4.842800166187209 0 0.06583954877530449 
0 0 0 1.010627742523998 -0.9628350135744517 0 
0 -0.5433776909320250 4.508865904164597 -0.1048804640062565 0 -0.5838784450068788 
0 -1.548834029525744 0.6889582555771622 2.741561578951036 0 0.9465081987044420 
-4.377156990202552 0.4957398586539454 -1.405593869126847 0 -2.244271156931085 0.1231299274101659 
0 -0.1257976296897765 0.6135502339397975 -2.417503519547058 0 1.584276310533845 
0 -4.810799310655431 -0.1591142791003102 0.2644471649947102 0 -0.1873584272674715 
0 0 0.3866449049276975 0 0 0 
0 -0.9949099097151729 5.763921338830053 0.2337764856166074 0 0.06231085490792953 
-0.8473771588518175 3.948124008798632 -1.773535288532028 -4.389376386254003 -1.112309289244891 -2.329524634224955 
0 0.4789513737072171 -0.1744738899038301 0 0 -0.5820889821576332 
-13.73518471649594 5.939932579022061 -7.517719452494533 -7.565110873916578 -11.48580054657874 -7.821136862694222 
15.52776916985305 -4.639941027737782 -8.483877776970882 -5.268002880520614 0 -5.194433756640768 
4.074237081047753 -7.296768305982303 -10.20799146814067 -7.740896677010895 -8.265621506917382 -10.62263554330895 
0 -8.544969768698250 0 0 0 0 
0 4.638102602703163 0 0.5533407981006029 0 0.6134584046919288 
-8.481225875514657 6.055272785390660 -2.574392734029837 -4.921028533999440 -0.8009435494032169 -1.075024611744523 
0 0 4.079510397413257 0 0 0 
0 1.127885577701819 0.1442079121183412 3.768599399872079 0 0 
0 -2.001377207869559 1.345245566581255 0 0 0 
9.864289893592414 -9.387404471284558 -4.836561481321037 -7.379997970029507 -1.779038224491300 -9.612744108792512 
0 -1.314055656343900 -0.3972855536347357 1.264375358001085 0 -1.518150317422181 
0 -0.6377910924043474 0 0.8398935854965164 0 0 
0 -0.9889918502958035 -0.3640025889937465 0 0 2.122146370792445 
0 -1.869782328149980 -3.108970230498112 -6.368136029305728 0 -4.082375574734900 
0 -7.846038879050907 0 -1.134393194871144 0 0 
10.70462093457027 0 -5.702994987150436 0 0 0.1168670975771975 
0 -2.551713818462073 -2.416718422534902 0 0 -4.651111795210960 
-0.1787729653844557 0 0.5594329435612136 -3.371141378018530 -1.332404289997200 -1.778582163506426 
0.2302531104435969 -1.347485789613558 -8.566004362107930 -11.94303173900620 -0.6113431151107175 -3.850312968922834 
0 -0.09317233873642320 -0.5453171093918104 3.475335154000048 0 1.776867229673235 
0 2.417838197700593 -2.054723208879051 0 0 1.466254424450917 
8.926722090857028 -1.968194804089616 -1.530351736526137 -3.272271147039214 -0.4664287182186664 -4.467355088785260 
-7.203484765286526 -0.4677258342753786 4.508564277728648 0.7597694389575341 -4.862254942291302 0.4358917622516615 
0 -0.1661047197310449 -3.685350799460033 6.030758673254007 0 -0.1255585439260958 
0 0 3.488224139782332 0 0 1.352112390170974 
3.382992668601092 -7.291139373176374 -0.8726840991179757 -1.528891762853648 -4.612762456582646 -0.6002250406319544 
0 0.1366616566502116 1.608066328957179 0.1762778064851294 0 -4.331875691338653 
0 -1.547458948970450 -2.363394777262552 4.426784006689212 0 0.8765180216745689 
0 -0.8393508237223669 0.5162514310102405 -2.588809926603778 0 2.020506306321876 
0 -0.1711245748244381 -1.035490242399458 0 0 -1.460655980859162 
0 0 0 0 0 -0.5762197441260838 
0 -2.196927271127172 -1.038203982778319 -0.4104997025597671 0 0 
0 -5.752232243794244 6.187544377758259 -8.410660345929173 0 0 
10.57805394926399 -3.771401054364616 -12.20167921713808 -0.7632494737400577 -8.327144135328933 -6.295350210464521 
0 -3.500413078553628 0 -2.409255881359071 0 0 
0 6.157924176508166 0 -3.568620256648069 -3.355788272236146 -0.2483667918128720 
0 -1.172545262367995 -0.7232969494219785 0 0 -3.254539454792271 
0 0 -0.4018354900901066 -0.4513528105685786 0 0.2111449005930906 
0 -4.759965034565054 0 0.1536737656354103 0 -3.871054275832808 
5.679107838946669 -11.30763815264652 0 -5.189432778713525 0 -3.518841985119029 
0 3.462715897918222 2.172592727222037 0 0 -0.9878750825328073 
5.218642875754995 -0.1781772277854065 -6.981941313352403 -1.221323182078036 -5.383319081222903 -3.775325404164935 
0 0.2268202752534707 0.9379018490750675 -1.977471468518997 0 0.6826406648887924 
0 0.1784127790832114 -4.867420740960148 1.929514874223582 0 -3.447864816974990 
0 -3.158830323427206 0 0 0 -3.226553685734527 
0 0 0 0 0 3.590761461176774 
0 -0.4830882283102213 0 2.501494696715648 0 -1.605709555360350 
0 -2.948907013297362 -0.8771872137259462 -5.360570223549942 0 -1.115396914507294 
0 -1.356443560758056 -1.680048344695102 0.7472344646916955 0 -0.2984554303588670 
0 -2.537936563893712 4.874075823662333 0.1436371914212992 0 2.160490963487215 
0 -1.902996105571232 -2.041952282134829 3.299866659388688 0 2.167961848871626 
-0.7981628928116928 -0.08422183987154301 2.706158097568450 -2.089100678372776 -3.723494328501474 0 
0 -1.928847412166537 0.2659577957166812 0 0 1.545057802804738 
0 -1.753012486796883 1.117256606103092 -1.148135612793481 0 6.175383456635456 
0 -1.665766466889088 -1.154754415071978 0 0 1.247241468860405 
16.22473667578590 -8.311321582861314 -7.370792581515946 -4.431883965408161 0 -11.44085299051811 
0 -1.264183910474989 -4.060279468669947 -3.820179226784110 0 1.042379382972731 
-1.429260261266629 9.721245407522568 -0.7374178890491546 -6.639136832433630 -6.292824754131593 -2.950432413219908 
0 -1.660382485712348 -0.3259652596650805 3.792743810834723 0 0 
0 0 -0.3672594093621423 1.191240456005875 0 5.537198364064190 
-10.75710971646038 5.082239223136029 -4.866360349284345 -5.629218083398550 -5.839881621658704 -4.472034984490040 
0 -2.984207665383972 0 0 0 0 
0 -4.190040717004028 -6.596167150060524 -4.192006148022169 0 -8.210808716933968 
0 -0.4495749799895586 0 0 0 2.526048421740341 
0 2.069839242234113 0.2318747562796016 -2.207162083497178 0 0 
0 1.028139675809798 -0.5671708358252173 -0.6871201792416270 0 0.6989009582339420 
0 0 0 -0.3187355040124775 0 0 
0 0.3722619392991194 0 -2.482729410262929 0 0 
1.247356446430927 -6.368878628667400 -8.975130008108179 -7.897953800457763 -4.132917910804332 -5.657802075796866 
0 0 -2.308542722637887 4.077191475875375 0 -5.005438818446073 
0 -2.112597689139671 0 -2.209439712528086 0 0 
13.08960949729275 -5.730752610848986 -5.951124445803083 -8.338815138214692 -4.078551064652023 -2.425302902195749 
-10.69673044796520 6.839842588416075 -7.583089213888525 -7.636978853148667 -11.64248293330662 -7.325650916367219 
5.767915453261904 -7.668368679531402 0 -2.566349876374968 0 -3.244709612520260 
0 0 1.540249271183282 0.9028803333070416 0 -1.391482323569039 
0 3.290157664759964 0.9859910669554095 -3.515158328550454 0 0.2115736032111241 
0 4.913252481554328 -7.374749515978275 -5.543242820577671 -0.5428007444378871 -0.3732465896969964 
0 -0.4726154812237118 1.531469793166979 0 0 -1.320401309086382 
9.300522932149957e-05 -1.273132860827684 0 0 0 0 
0 0 0 -0.8817785123526428 0 0 
0 -1.182507617921945 -2.072541550069121 -0.4450945567615241 -1.326749928937067 -6.878876600989107 
0 -0.2156504384662204 -5.181916743954052 -6.255313583162212 0 0.4555580833715340 
9.812352131773718 -4.945810889675444 -2.868538403682300 -9.034239780193431 0 -7.058796968291175 
0 -3.121419036463454 0 3.488373685374394 0 -0.3251121409958175 
2.155500711082701 -3.124812047409036 -4.062057737363477 1.492277037107300 0 -1.618256178396528 
4.658280399475201 -3.297437687252954 0.2245918641019341 1.225877388392347 0 3.231860805482786 
0 -3.635956166467560 0.1083586692161110 3.320646617637424 0 0.1573236315638627 
0 0.2447836856620125 0 3.954204432885288 0 0 
-11.96466737586024 6.536813630787988 -8.036002208465865 -7.720636502336089 -12.43792481594096 -8.775922780351930 
0 -2.416406789438989 1.602807613373610 -7.507886654107087 0 1.732920949536275 
0 0.8675816510145068 -1.778891662713734 -2.518191580150158 0 1.847558015490030 
0 -1.017149469466251 4.411382173165680 0 0 2.353032854949988 
0 -2.177459866219991 0 8.428057134022215 0 0 
11.45746249430897 -12.05547319481068 0 -2.328931928894125 0 -0.2826026159006996 
0 -2.428340521842086 -0.3560555026773585 2.041076902053404 0 0 
0 0.7720047763153218 0 0 0 -3.175636696078850 
0 -0.3489402753718118 2.357409923853986 0 0 0.1390219284856423 
0 -0.8226918392221221 0.1144936538647433 0 0 -0.6713813567954122 
0 0.5080217938770435 0 -0.01737065375370546 0 -0.5506174814526003 
0 1.208304556841033 -0.3567028026825241 0.3339131151688454 -0.08621787123418367 -2.628738011227889 
0 -2.986346298160330 -1.601492510744287 -1.139513051594728 0 0 
0 -0.1910023398026496 3.582425708964173 -0.4983074997800707 0 0.8630332030000861 
0 1.292468612047085 -0.06013259279993390 0 0 -3.612876896915246 
0 -12.01110447301799 -2.007853233155464 -8.755322824222885 0 0.1622122581212818 
0 0 3.721252321582968 -0.1712022452252839 0 -1.154081858502569 
0 0.8147907735799130 -0.1861937250110382 2.268937064919798 0 0.8469525505559842 
1.042912875602486 -4.513474857894648 0 -5.381963748548441 0 -1.557460654097794 
0 -0.8683645225963743 0.9194752610413819 2.346342031664365 0 -5.902991066822638 
2.058066058986475 0.6197662808162119 -0.4707817419654178 -0.5806732108377952 0 -0.06805633572996720 
0 -3.511984667946801 -3.705974598437309 0 0 -1.524729147981720 
2.450977161277955 -0.3603355150314608 0 -3.649474978821905 0 0.4277580834845791 
0.3850868439530258 0.1733433470570911 -1.985747944990784 -3.630192273605262 0 -0.9662719968775441 
0 0.2458225555134441 0.1076264849531148 0 -0.6762212844812063 -0.7650882663778836 
-8.959064908045804 0.3835891962948985 -1.262538983508374 -10.63520630737914 0 -3.665677157261173 
1.503845592502069 0 0 4.479099467119143 0 0 
0 0 7.199723466010638 0 0 2.668389018500314 
0 -1.618418461395840 -0.8076953073590998 2.363794616272094 0 -6.765644761884913 
0 2.543971641317994 -0.04273687941355307 -4.603524354385931 -6.140662720642121 -4.053180235340950 
0 -3.220234761764710 0 0 0 3.337100361411811 
0 -2.837919607014788 0.5321525616260543 -2.083721576452373 0 0.2786293136189448 
0 -2.135712527947884 0.5661716546019636 0.4117981514747991 0 0 
0 -2.978699756115029 1.053214912202909 -2.604513763847929 0 0 
-10.59897091305192 0.5907598137477384 -3.713272732947952 -1.312250099274906 -3.976458825158450 -4.016495202480268 
0 0 4.413907840983962 -3.937906578583737 0 0 
3.896738465200863 -1.495596071762837 0 0 0 0 
-6.885564714811295 -1.934478232702208 4.077621312453352 -9.040014031055073 -13.43258557423648 -0.4604377986283067 
0.05596025198694835 0 -5.542428421220166 0 0 0 
0 -2.401193185601110 0 0 0 -4.215309726347170 
13.89612208934910 0 -8.613292856463818 0 0 -0.2516388994887495 
0.1036188843924527 -0.6008749183580727 -5.749494244174816 0 0 0 
0 -0.5117213451655596 0 0 0 0 
0 0 -0.3538156272008205 1.224720923915181 0 -0.9554527491217860 
0 -0.6692644055160059 -1.574299871136369 -0.4571982119274836 0 -2.449707996262518 
0.5625311319470601 -4.108789408941727 0.6527073420569417 -1.779370503418769 0 0 
0 -1.386356761559047 0 0 0 -1.213203791108119 
0 -4.377290405969857 5.930702052802484 0 0 0 
0 -0.6264444624827341 0 0 0 -0.8600656000804501 
0 -1.405627738724175 0 0 0 0 
2.225596471794060 0 -9.389672845944355 0 0 0 
0 -0.3696113407701042 1.389913042840934 -3.375632644623570 0 0 
0 0 0 0 0 0.2667344148997504 
0 1.311751192752579 5.458946923910415 0.3744308393522900 0 -1.985021283129445 
0 -0.3203802549548556 2.769251050092433 -1.026190860326809 0 -0.5161659337816827 
0 -0.4851440844187778 0 5.085015116292558 0 -1.221209939875653 
1.245391148452789 -7.194991347547892 -0.4028945336341548 1.167470720819024 0 -2.498669880378943 
4.948915402597214 -0.7898846116915305 -2.691154109529176 -4.058449723305946 0 0 
0 -0.1642642622210830 -1.389247165067497 -1.340589015122150 -0.8927192353036930 1.520496023223346 
5.174695933274649 -4.946164087075958 -6.696285026257495 0 -6.679766315514640 -2.593876313665922 
0 -0.8901153767815972 0 -0.5327850078280809 0 0 
0 -1.298427815361911 0 1.335296266645527 0 -1.446368774233215 
0 0 -4.794247804314137 0 0 1.825426008887164 
0 1.794377451034956 -5.469225547400975 1.603797273541820 0 -2.933677994959706 
2.721064099527311 -2.795763502794628 0 0 -1.426823021771926 -9.933744973284440 
3.792588936658360 -0.6883016059302549 -0.09750381627655956 -14.28498208131252 -0.08049198002819301 0 
0 2.339846128463137 -6.110300010184936 -2.223973699913652 0 -4.223414909476390 
-8.510833131111042 5.777989996995633 -3.253806813258999 -5.337480499416974 -8.358083963421764 -1.442815997166365 
-9.778377326181083 0.8251616631526341 -3.575713799666673 -2.273102663387045 -5.868107709185165 -0.05978404058539352 
-5.369876101108988 6.325457301060786 -5.789466927681184 -2.457510503922494 -5.893407718597825 -2.300398686350772 
0 1.547398935790374 0 -6.589666123841788 0 -2.553224356025490 
-12.32886161661664 0.1613063169801227 -5.304826719650110 -0.6959306359655588 -8.630222809618575 -5.033566079682373 
-5.576731546350219 1.289458536122369 -1.093740681877669 -3.571522819102033 -6.838647540247173 -6.886735414310051 
-12.85377788713408 6.727100904376339 -7.321739046238049 -7.511222898883657 -11.37813972260201 -7.468655960155036 
0 0.5743503651664350 -5.101144376147227 -3.144015139297333 0 -1.725086385354830 
-0.5286877568637468 5.711303219936283 -5.334525370124911 -4.383860206301399 -4.509999974745508 -1.082710661690397 
-12.59105442243058 3.216144570848538 -1.286719871318781 -3.270793536889643 -9.192688888835015 -5.728275367300086 
-10.72599867112151 6.522149283957692 -7.466359369123357 -7.845219742402141 -10.67414489359714 -7.839326782304170 
-10.51607904832149 6.886575633703482 -7.836228820329929 -7.709736953061766 -10.53054664595727 -7.816264182376330 
-12.69357274867840 7.200256274977916 -8.198489982581316 -8.198489982581316 -12.69357274867840 -8.198489982581316 
-10.84974942488067 6.449393113599497 -7.172166822794588 -8.032107592532956 -11.00952814855903 -7.372458349912078 
-6.431391083973901 1.899590309993557 -0.7204705370198085 0.2646550950132050 0 0.5394272567142326 
-0.7751732193409988 0.5507462512710469 -2.434991290958656 -1.600595928789972 0 -0.4846424516923593 
0 5.111867285542687 -0.4044182653304198 -5.222105412621654 0 -4.831480398249916 
-12.36460524660224 6.809817847477003 -7.870450914776145 -8.066332033132607 -12.48553649146454 -7.582221240755104 
-4.394545610337314 5.164632137124826 -6.879290624146623 -5.576592774509961 -3.841534681300677 -8.600616053520740 
-12.56277495066304 5.129456402965317 -6.535889262438117 -6.234293096146297 -11.14371996931111 -6.338101271790028 
-9.517973968099332 5.997879498594183 -6.999752062489693 -7.589707111995675 -9.497238999364388 -7.273301885062468 
-9.446513611112335 6.184738313151979 -7.513194044700135 -6.847221276089041 -9.560432276990628 -7.068208026056550 
-11.12957159881305 6.397687196529924 -1.866459673448598 -5.604936670321401 -6.306547667792689 -6.631915481247542 
0 1.641698373635142 -2.601456275031834 -1.832987350980958 0 0.5331824642236236 
-13.24021486523767 7.205002451160877 -8.080656686750274 -8.164332469118177 -13.17102196705187 -7.992778638667448 
0 -3.514307399446055 0.6775434592094624 2.988457203606976 0 5.514408809401473 
-9.194595797019385 10.89556192903324 -3.392258361703998 -6.205510074201511 -6.968172473583393 -1.428097649736900 
-11.60766022901258 6.542812517737205 -6.927477532792406 -7.360522911244339 -11.12440894605830 -7.160697993577426 
0 -1.598650524429935 0 -2.324317781568267 0 0.5614297768126817 
-2.538195392226619 4.990217897275128 -0.4533955746130435 -3.763137932785448 0 -1.170266583965949 
0 1.422665054999214 -1.572376553265863 0.1062474650555742 0 -5.977060375139038 
0 0 1.035255175210252 1.579218906507211 0 -4.471318268972014 
0 -1.254786336767058 -0.01160439151200370 -0.4900072593834065 0 0.5749254535161630 
0 1.510464796933358 -1.530034231395444 -2.502495140395722 0 0 
-9.714680311066463 5.584162672502446 -6.995296948367058 -5.917920177057944 -9.525248476055582 -6.295025241052757 
-6.215424055387414 3.641527919946675 -3.935855408686906 -1.540069925313887 -5.350039437485042 -5.505962823548758 
-0.8589438548240133 2.320467289063582 -0.8954300749703181 0 0 -0.1114067906112028 
-6.986584445376591 2.830287841685265 -2.478400330078787 -1.222492640474813 -4.349913647891235 -7.356820882846497 
-1.403264826556174 2.497861875266568 -6.843415746478464 -1.677610444074230 -4.659701207680095 0 
-3.247380778855289 -0.4377480343990825 -0.006603766625387419 -7.745471004624001 0 0.2520487496168308 
-5.080687028817421 6.386530507380252 -7.503995024924963 -6.024526489044464 -5.795279775742267 -7.057125804871602 
0 3.170207204374716 -0.3703484948146712 -1.866730032350625 0 -1.459702782374110 
0 0.6283990552023646 -0.5906985583839501 -1.901348656244958 0 1.860099580497880 
-13.52473154835350 8.584665524581480 -2.815910420278649 -4.622749411916470 -5.603804251332854 -8.210473820405598 
-6.919725922723304 8.206340851388498 -5.070179682432230 -7.427732407970620 -5.967390912662985 -5.871470096729829 
-6.732178560532476 -1.814903253833014 -5.892318842686676 -1.781467189346400 -7.891494569239653 -5.406791389683651 
-10.01637492036893 7.159357699972237 -5.144854399607669 -8.933161733147637 -5.616494802690265 -4.755556051000077 
-12.57060208933583 5.587366964285721 -3.595311742307674 -4.112782003938827 -2.207490575517324 -6.485873029390432 
-3.401937252989169 0.5565910344419582 -4.133723240466191 -2.485847611224694 -3.378755948188850 -2.454510632131511 
-9.356727864575062 7.133622622422093 -5.314008819818445 -7.585718545369081 -9.505616750159126 -6.794406230861619 
-12.00059312902394 3.806381535256606 -0.5105385757999490 -1.284623409687652 -1.687196517862472 -4.396702571035709 
-0.9446768110364250 5.928836191056684 -3.969016279287889 -4.591979894449599 -6.689782867792161 -5.361723876399624 
0 5.983903849560564 -2.862711242914700 -2.217892428642204 -5.538514539915481 -3.115225138886439 
-7.840492510403785 2.131533427673026 -9.265005902265322 -6.775822576410863 -6.006314211614250 -2.788851647376984 
-12.59681705629151 7.200151024932826 -8.196271837052173 -8.198874697117250 -12.59488890568255 -8.197815909116494 
-1.220582372842232 3.572935573552385 -4.901633184353333 -3.396881098377041 0 -3.215232152534318 
-10.69533076476341 6.759220482242682 -7.749687763327358 -7.518034183268560 -10.68846470694961 -7.882490413937105 
0 0.8412600615465394 -1.216474688663638 -0.5692885462251209 0 0 
-8.923677377090744 -0.9348479237563034 -4.867873486249230 -6.809813229585780 -7.751093471152958 -4.499050780350252 
-2.451522914350953 0.2054304117746470 0 0 0 -0.4010604235351216 
-0.4208925458290239 2.090687382989486 -0.8330463544702152 1.215975988275448 0 0 
0 4.182924427899932 -1.322874481931290 -1.280657198095716 0 -0.1184863401201095 
0 2.341139361456563 -1.022988273371790 0.1113735489851188 0 -1.994920434938956 
-2.160316955879508 1.198738532388620 -0.6592382686759558 -8.209696265622185 0 -2.946395061569483 
-0.07476956506304520 0.5586853389703457 -3.510954633231560 -2.415022192035067 0 0 
-2.108175739469421 0.1143153335285062 0 -0.08930150349114019 0 -3.091793661977671 
0 10.37068032741384 -0.06702036881425659 -0.1873623901919040 0 0 
-2.040842689046604 -1.583537041797842 -2.008652837091570 -2.802452724541651 0 -0.2023663622111772 
-11.75501100436678 1.725294689885961 -6.239769232920213 -3.656331455956759 -11.23693600856541 -6.956971411990423 
